{"learner":{"attributes":{"scikit_learn":"{\"_estimator_type\": \"classifier\"}"},"feature_names":["business_vintage_years","bureau_score","active_loan_count","credit_inquiries_6m","total_outstanding_amount","dpd_30_count_12m","dpd_90_count_12m","credit_utilization_ratio","oldest_credit_line_age_months","write_off_flag","avg_monthly_balance","avg_monthly_credit_turnover","avg_monthly_debit_turnover","bounce_count_6m","cash_deposit_ratio","banking_relationship_count","gst_filing_regularity_pct","monthly_avg_gst_turnover","gst_turnover_growth_yoy","input_tax_credit_utilization_pct","requested_loan_amount","interest_rate_pct","tenure_months","state_Delhi","state_Gujarat","state_Karnataka","state_Madhya Pradesh","state_Maharashtra","state_Punjab","state_Rajasthan","state_Tamil Nadu","state_Uttar Pradesh","state_West Bengal","sector_Agriculture Allied","sector_Auto Components","sector_Construction Materials","sector_Food Processing","sector_IT/ITES Services","sector_Pharma & Healthcare","sector_Retail Trade","sector_Textile & Apparel","entity_type_LLP","entity_type_Partnership","entity_type_Private Limited","entity_type_Proprietorship","proprietor_gender_Female","proprietor_gender_Male","proprietor_gender_Other"],"feature_types":["float","int","int","int","float","int","int","float","int","int","float","float","float","int","float","int","float","float","float","float","float","float","int","i","i","i","i","i","i","i","i","i","i","i","i","i","i","i","i","i","i","i","i","i","i","i","i","i"],"gradient_booster":{"model":{"cats":{"enc":[],"feature_segments":[],"sorted_idx":[]},"gbtree_model_param":{"num_parallel_tree":"1","num_trees":"200"},"iteration_indptr":[0,1,2,3,4,5,6,7,8,9,10,11,12,13,14,15,16,17,18,19,20,21,22,23,24,25,26,27,28,29,30,31,32,33,34,35,36,37,38,39,40,41,42,43,44,45,46,47,48,49,50,51,52,53,54,55,56,57,58,59,60,61,62,63,64,65,66,67,68,69,70,71,72,73,74,75,76,77,78,79,80,81,82,83,84,85,86,87,88,89,90,91,92,93,94,95,96,97,98,99,100,101,102,103,104,105,106,107,108,109,110,111,112,113,114,115,116,117,118,119,120,121,122,123,124,125,126,127,128,129,130,131,132,133,134,135,136,137,138,139,140,141,142,143,144,145,146,147,148,149,150,151,152,153,154,155,156,157,158,159,160,161,162,163,164,165,166,167,168,169,170,171,172,173,174,175,176,177,178,179,180,181,182,183,184,185,186,187,188,189,190,191,192,193,194,195,196,197,198,199,200],"tree_info":[0,0,0,0,0,0,0,0,0,0,0,0,0,0,0,0,0,0,0,0,0,0,0,0,0,0,0,0,0,0,0,0,0,0,0,0,0,0,0,0,0,0,0,0,0,0,0,0,0,0,0,0,0,0,0,0,0,0,0,0,0,0,0,0,0,0,0,0,0,0,0,0,0,0,0,0,0,0,0,0,0,0,0,0,0,0,0,0,0,0,0,0,0,0,0,0,0,0,0,0,0,0,0,0,0,0,0,0,0,0,0,0,0,0,0,0,0,0,0,0,0,0,0,0,0,0,0,0,0,0,0,0,0,0,0,0,0,0,0,0,0,0,0,0,0,0,0,0,0,0,0,0,0,0,0,0,0,0,0,0,0,0,0,0,0,0,0,0,0,0,0,0,0,0,0,0,0,0,0,0,0,0,0,0,0,0,0,0,0,0,0,0,0,0,0,0,0,0,0,0],"trees":[{"base_weights":[-5.6506804E-4,8.545617E-1,-8.845493E-1,1.166789E0,3.6330485E-1,-3.3057424E-1,-1.1602509E0,1.9634758E0,1.1191483E0,4.209149E-1,-6.069806E-1,-4.2057008E-1,8.5571676E-1,-1.2420275E0,9.751572E-2,2.9419942E-2,1.05254136E-1,5.9090953E-2,3.285271E-2,3.2714E-2,1.0042421E-2,5.3475928E-2,-5.381283E-2,-2.4070337E-2,3.8664643E-2,5.8792133E-2,-5.7032805E-2,-6.267759E-2,1.7130679E-2,3.8008306E-2,-2.7447417E-2],"categories":[],"categories_nodes":[],"categories_segments":[],"categories_sizes":[],"default_left":[0,0,0,0,0,0,0,0,0,0,0,0,0,0,0,0,0,0,0,0,0,0,0,0,0,0,0,0,0,0,0],"id":0,"left_children":[1,3,5,7,9,11,13,15,17,19,21,23,25,27,29,-1,-1,-1,-1,-1,-1,-1,-1,-1,-1,-1,-1,-1,-1,-1,-1],"loss_changes":[1.2317278E3,1.2661505E2,1.2198566E2,1.7005371E1,1.8327377E1,2.8933289E1,5.5104248E1,4.062042E0,1.311615E1,1.5571697E1,1.572888E1,1.8489014E1,1.3612872E1,9.597046E0,1.4794307E1,0E0,0E0,0E0,0E0,0E0,0E0,0E0,0E0,0E0,0E0,0E0,0E0,0E0,0E0,0E0,0E0],"parents":[2147483647,0,0,1,1,2,2,3,3,4,4,5,5,6,6,7,7,8,8,9,9,10,10,11,11,12,12,13,13,14,14],"right_children":[2,4,6,8,10,12,14,16,18,20,22,24,26,28,30,-1,-1,-1,-1,-1,-1,-1,-1,-1,-1,-1,-1,-1,-1,-1,-1],"split_conditions":[6.52E2,6.1E2,6.86E2,4.76E2,1.0142674E6,1.1112256E5,1E0,-6.6E0,1E0,6.3E2,1.779736E5,9.57E1,3.11E-1,2.97E1,7.2E2,2.9419942E-2,1.05254136E-1,5.9090953E-2,3.285271E-2,3.2714E-2,1.0042421E-2,5.3475928E-2,-5.381283E-2,-2.4070337E-2,3.8664643E-2,5.8792133E-2,-5.7032805E-2,-6.267759E-2,1.7130679E-2,3.8008306E-2,-2.7447417E-2],"split_indices":[1,1,1,1,4,10,9,18,34,1,20,16,14,0,1,0,0,0,0,0,0,0,0,0,0,0,0,0,0,0,0],"split_type":[0,0,0,0,0,0,0,0,0,0,0,0,0,0,0,0,0,0,0,0,0,0,0,0,0,0,0,0,0,0,0],"sum_hessian":[1.6274451E3,8.2724176E2,8.002033E2,5.0494162E2,3.223001E2,2.666384E2,5.3356494E2,2.6222002E1,4.7871964E2,3.0477075E2,1.7529362E1,2.4843666E2,1.820172E1,5.0100354E2,3.2561386E1,2.9295645E0,2.3292439E1,4.2017636E2,5.8543262E1,1.4695848E2,1.5781227E2,3.5538979E0,1.3975463E1,2.3695854E2,1.1478129E1,1.6040565E1,2.161154E0,4.9759372E2,3.4098208E0,1.599254E1,1.6568848E1],"tree_param":{"num_deleted":"0","num_feature":"48","num_nodes":"31","size_leaf_vector":"1"}},{"base_weights":[2.647314E-2,8.411513E-1,-8.339566E-1,1.2397513E0,4.9373052E-1,-2.8296903E-1,-1.1115515E0,7.5592E-1,1.3073918E0,3.8011426E-1,1.0393531E0,-4.9350244E-1,6.864053E-1,-1.1883519E0,-1.82758E-2,4.338526E-2,-5.862477E-2,7.618069E-2,5.9859145E-2,2.837931E-2,2.6047367E-3,-1.484011E-4,5.845657E-2,-2.924409E-2,3.7250232E-2,-2.8755749E-2,4.6100173E-2,-6.425801E-2,-2.9692044E-2,3.3315707E-2,-4.4171575E-2],"categories":[],"categories_nodes":[],"categories_segments":[],"categories_sizes":[],"default_left":[0,0,0,0,0,0,0,0,0,0,0,0,0,0,0,0,0,0,0,0,0,0,0,0,0,0,0,0,0,0,0],"id":1,"left_children":[1,3,5,7,9,11,13,15,17,19,21,23,25,27,29,-1,-1,-1,-1,-1,-1,-1,-1,-1,-1,-1,-1,-1,-1,-1,-1],"loss_changes":[1.1485994E3,1.1594116E2,1.215766E2,1.1817383E1,2.7585236E1,5.510131E1,4.4445312E1,1.1874376E1,6.3239746E0,2.3039722E1,1.0448029E1,2.5451046E1,1.4884743E1,2.7715454E1,2.177839E1,0E0,0E0,0E0,0E0,0E0,0E0,0E0,0E0,0E0,0E0,0E0,0E0,0E0,0E0,0E0,0E0],"parents":[2147483647,0,0,1,1,2,2,3,3,4,4,5,5,6,6,7,7,8,8,9,9,10,10,11,11,12,12,13,13,14,14],"right_children":[2,4,6,8,10,12,14,16,18,20,22,24,26,28,30,-1,-1,-1,-1,-1,-1,-1,-1,-1,-1,-1,-1,-1,-1,-1,-1],"split_conditions":[6.52E2,5.93E2,6.86E2,1.364E1,1E0,1E0,1E0,5.7E-1,5.34E2,1E0,5.729634E4,1E0,9E0,1E0,7.2E2,4.338526E-2,-5.862477E-2,7.618069E-2,5.9859145E-2,2.837931E-2,2.6047367E-3,-1.484011E-4,5.845657E-2,-2.924409E-2,3.7250232E-2,-2.8755749E-2,4.6100173E-2,-6.425801E-2,-2.9692044E-2,3.3315707E-2,-4.4171575E-2],"split_indices":[1,1,1,21,6,6,9,7,1,5,4,9,8,6,1,0,0,0,0,0,0,0,0,0,0,0,0,0,0,0,0],"split_type":[0,0,0,0,0,0,0,0,0,0,0,0,0,0,0,0,0,0,0,0,0,0,0,0,0,0,0,0,0,0,0],"sum_hessian":[1.6365773E3,8.406497E2,7.959275E2,3.9029318E2,4.5035654E2,2.6733124E2,5.2859625E2,4.9364544E1,3.4092865E2,3.741443E2,7.6212265E1,2.2003407E2,4.729716E1,4.938195E2,3.4776764E1,4.7179703E1,2.184841E0,1.1077365E2,2.30155E2,2.3761221E2,1.3653207E2,8.546634E0,6.766563E1,2.0540656E2,1.4627525E1,7.2162666E0,4.0080894E1,4.2366882E2,7.015066E1,1.9542664E1,1.52341E1],"tree_param":{"num_deleted":"0","num_feature":"48","num_nodes":"31","size_leaf_vector":"1"}},{"base_weights":[1.04820365E-2,-2.3528496E-2,5.8100903E-1,-5.7058044E-2,5.2894044E-1,6.9403976E-1,-4.3127698E-1,1.0983639E-1,-1.5511563E-1,2.5292325E-1,1.2087321E0,9.0782475E-1,-1.2543396E-2,7.5396025E-1,-6.961436E-2,-4.7800792E-3,1.4878171E-2,-1.1376506E-2,2.0099407E-2,3.2076374E-2,-1.2050398E-2,6.9074824E-2,-4.9194258E-2,2.3858136E-2,7.234229E-2,-1.563762E-2,5.827264E-2,-5.7118516E-3,7.6572336E-2],"categories":[],"categories_nodes":[],"categories_segments":[],"categories_sizes":[],"default_left":[0,0,0,0,0,0,0,0,0,0,0,0,0,0,0,0,0,0,0,0,0,0,0,0,0,0,0,0,0],"id":2,"left_children":[1,3,5,7,9,11,13,15,17,19,21,23,25,27,-1,-1,-1,-1,-1,-1,-1,-1,-1,-1,-1,-1,-1,-1,-1],"loss_changes":[3.185139E1,2.8732063E1,1.0865688E1,2.3937939E1,1.6347366E1,1.2617855E1,1.2317499E1,2.0913986E1,3.7252342E1,1.2513412E1,1.0967781E1,1.4185734E1,7.568779E0,3.6027844E0,0E0,0E0,0E0,0E0,0E0,0E0,0E0,0E0,0E0,0E0,0E0,0E0,0E0,0E0,0E0],"parents":[2147483647,0,0,1,1,2,2,3,3,4,4,5,5,6,6,7,7,8,8,9,9,10,10,11,11,12,12,13,13],"right_children":[2,4,6,8,10,12,14,16,18,20,22,24,26,28,-1,-1,-1,-1,-1,-1,-1,-1,-1,-1,-1,-1,-1,-1,-1],"split_conditions":[1E0,3E0,1E0,9.218471E4,7.01E1,7.5E0,5.622427E4,6.358373E4,1E0,5.07E1,1E0,3.8E0,5.98697E5,1.16E1,-6.961436E-2,-4.7800792E-3,1.4878171E-2,-1.1376506E-2,2.0099407E-2,3.2076374E-2,-1.2050398E-2,6.9074824E-2,-4.9194258E-2,2.3858136E-2,7.234229E-2,-1.563762E-2,5.827264E-2,-5.7118516E-3,7.6572336E-2],"split_indices":[9,13,36,12,19,0,17,11,41,19,35,0,11,0,0,0,0,0,0,0,0,0,0,0,0,0,0,0,0],"split_type":[0,0,0,0,0,0,0,0,0,0,0,0,0,0,0,0,0,0,0,0,0,0,0,0,0,0,0,0,0],"sum_hessian":[1.6397877E3,1.5484402E3,9.134761E1,1.4606873E3,8.775294E1,8.245514E1,8.892468E0,5.405495E2,9.201377E2,6.3387596E1,2.436534E1,6.308364E1,1.93715E1,4.078189E0,4.814279E0,2.5833395E2,2.8221555E2,8.1481635E2,1.0532135E2,3.530908E1,2.8078516E1,2.292864E1,1.4366988E0,3.611447E1,2.6969168E1,1.6022673E1,3.3488278E0,2.3297224E0,1.7484667E0],"tree_param":{"num_deleted":"0","num_feature":"48","num_nodes":"29","size_leaf_vector":"1"}},{"base_weights":[-2.2773934E-3,6.881394E-1,-8.539867E-1,9.979507E-1,2.7207923E-1,-4.571233E-1,-1.141828E0,7.722049E-2,1.0307057E0,1.410365E-1,8.773925E-1,-6.348109E-1,3.616907E-1,-1.2144679E0,-6.6661066E-1,-2.8839756E-2,8.1124805E-2,6.7835025E-2,4.6638694E-2,1.9969002E-3,3.6524277E-2,-4.1295864E-2,5.1191784E-2,-1.8989274E-2,-4.517603E-2,-3.1248957E-2,3.632809E-2,-3.158492E-2,-6.364175E-2,-4.4105485E-2,3.895332E-2],"categories":[],"categories_nodes":[],"categories_segments":[],"categories_sizes":[],"default_left":[0,0,0,0,0,0,0,0,0,0,0,0,0,0,0,0,0,0,0,0,0,0,0,0,0,0,0,0,0,0,0],"id":3,"left_children":[1,3,5,7,9,11,13,15,17,19,21,23,25,27,29,-1,-1,-1,-1,-1,-1,-1,-1,-1,-1,-1,-1,-1,-1,-1,-1],"loss_changes":[9.639029E2,1.1642453E2,8.331116E1,1.5558899E1,3.0635525E1,4.5358498E1,1.385083E1,2.0031242E1,1.47178955E1,1.9038012E1,1.8011395E1,1.7147446E1,2.059487E1,1.1684998E1,1.892074E1,0E0,0E0,0E0,0E0,0E0,0E0,0E0,0E0,0E0,0E0,0E0,0E0,0E0,0E0,0E0,0E0],"parents":[2147483647,0,0,1,1,2,2,3,3,4,4,5,5,6,6,7,7,8,8,9,9,10,10,11,11,12,12,13,13,14,14],"right_children":[2,4,6,8,10,12,14,16,18,20,22,24,26,28,30,-1,-1,-1,-1,-1,-1,-1,-1,-1,-1,-1,-1,-1,-1,-1,-1],"split_conditions":[6.58E2,6.1E2,6.99E2,1.104E1,1E0,1E0,1E0,1E0,5.3E2,1E0,9.7E-2,6.77E2,2.7E0,1.8E1,1E0,-2.8839756E-2,8.1124805E-2,6.7835025E-2,4.6638694E-2,1.9969002E-3,3.6524277E-2,-4.1295864E-2,5.1191784E-2,-1.8989274E-2,-4.517603E-2,-3.1248957E-2,3.632809E-2,-3.158492E-2,-6.364175E-2,-4.4105485E-2,3.895332E-2],"split_indices":[1,1,1,21,6,6,6,6,1,39,7,1,0,22,32,0,0,0,0,0,0,0,0,0,0,0,0,0,0,0,0],"split_type":[0,0,0,0,0,0,0,0,0,0,0,0,0,0,0,0,0,0,0,0,0,0,0,0,0,0,0,0,0,0,0],"sum_hessian":[1.6371954E3,9.043217E2,7.328737E2,5.1754395E2,3.867778E2,3.0917892E2,4.2369476E2,1.7894466E1,4.9964948E2,3.1895996E2,6.781784E1,2.5423344E2,5.4945488E1,3.661681E2,5.7526676E1,1.3013448E1,4.8810177E0,1.12455284E2,3.8719418E2,2.7317456E2,4.5785378E1,5.001741E0,6.2816097E1,1.3167625E2,1.2255718E2,1.4641001E1,4.0304485E1,3.441109E1,3.31757E2,5.0403183E1,7.1234922E0],"tree_param":{"num_deleted":"0","num_feature":"48","num_nodes":"31","size_leaf_vector":"1"}},{"base_weights":[4.0673446E-3,5.9053904E-1,-9.9074066E-1,9.5004267E-1,1.3728474E-1,-1.0635893E0,2.0844635E-2,1.0703038E0,6.843652E-1,5.656644E-1,1.2108564E-2,-7.4254286E-1,-1.1841156E0,7.951975E-1,-4.0819135E-1,5.7549626E-2,3.5401106E-2,4.80954E-2,1.7338112E-2,3.3741828E-2,-6.905766E-2,5.007908E-3,-3.514491E-2,-2.0115478E-2,-5.666105E-2,-6.08758E-2,-2.9269148E-2,5.2222487E-2,-4.771379E-2,-3.5279203E-2,7.6264895E-2],"categories":[],"categories_nodes":[],"categories_segments":[],"categories_sizes":[],"default_left":[0,0,0,0,0,0,0,0,0,0,0,0,0,0,0,0,0,0,0,0,0,0,0,0,0,0,0,0,0,0,0],"id":4,"left_children":[1,3,5,7,9,11,13,15,17,19,21,23,25,27,29,-1,-1,-1,-1,-1,-1,-1,-1,-1,-1,-1,-1,-1,-1,-1,-1],"loss_changes":[9.531549E2,1.6734497E2,4.4674194E1,1.757544E1,2.4433853E1,2.099231E1,1.4173262E1,1.066391E1,1.665654E1,2.2833282E1,2.2340622E1,2.0407738E1,7.471924E0,7.625121E0,1.68796E1,0E0,0E0,0E0,0E0,0E0,0E0,0E0,0E0,0E0,0E0,0E0,0E0,0E0,0E0,0E0,0E0],"parents":[2147483647,0,0,1,1,2,2,3,3,4,4,5,5,6,6,7,7,8,8,9,9,10,10,11,11,12,12,13,13,14,14],"right_children":[2,4,6,8,10,12,14,16,18,20,22,24,26,28,30,-1,-1,-1,-1,-1,-1,-1,-1,-1,-1,-1,-1,-1,-1,-1,-1],"split_conditions":[6.73E2,6.16E2,1E0,5.91E2,2.2466395E5,6.98E2,5.259671E4,4.8E1,3.6E1,4E0,1E0,4.3E0,3E0,1E0,8.21E2,5.7549626E-2,3.5401106E-2,4.80954E-2,1.7338112E-2,3.3741828E-2,-6.905766E-2,5.007908E-3,-3.514491E-2,-2.0115478E-2,-5.666105E-2,-6.08758E-2,-2.9269148E-2,5.2222487E-2,-4.771379E-2,-3.5279203E-2,7.6264895E-2],"split_indices":[1,1,9,1,20,1,17,22,22,15,34,0,13,40,1,0,0,0,0,0,0,0,0,0,0,0,0,0,0,0,0],"split_type":[0,0,0,0,0,0,0,0,0,0,0,0,0,0,0,0,0,0,0,0,0,0,0,0,0,0,0,0,0,0,0],"sum_hessian":[1.6317155E3,1.0267936E3,6.049219E2,5.720053E2,4.547883E2,5.642373E2,4.0684578E1,3.9167957E2,1.8032574E2,1.0204602E2,3.5274228E2,1.5596188E2,4.0827542E2,1.420072E1,2.648386E1,3.185532E2,7.312638E1,9.79511E1,8.237463E1,9.724609E1,4.79993E0,3.1483215E2,3.7910122E1,8.444784E1,7.1514046E1,3.857243E2,2.2551105E1,1.2782547E1,1.4181725E0,2.3503782E1,2.9800777E0],"tree_param":{"num_deleted":"0","num_feature":"48","num_nodes":"31","size_leaf_vector":"1"}},{"base_weights":[-1.0617161E-2,6.327491E-1,-8.425368E-1,8.9051175E-1,1.8565913E-1,-9.822959E-1,-1.0203022E-1,9.077242E-1,-7.043459E-2,1.3272318E-1,9.142822E-1,-1.0513089E0,-7.909296E-3,3.4647375E-1,-1.1086967E0,4.11645E-2,6.657967E-2,1.11797685E-2,-1.6765397E-2,-5.2587856E-2,5.6173332E-2,-2.7821219E-2,-5.7842292E-2,2.2710245E-2,-3.3317525E-2,2.2538451E-2,-6.46312E-2,-6.387025E-2,1.8293073E-2],"categories":[],"categories_nodes":[],"categories_segments":[],"categories_sizes":[],"default_left":[0,0,0,0,0,0,0,0,0,0,0,0,0,0,0,0,0,0,0,0,0,0,0,0,0,0,0,0,0],"id":5,"left_children":[1,3,5,7,9,11,13,15,-1,17,19,21,23,25,27,-1,-1,-1,-1,-1,-1,-1,-1,-1,-1,-1,-1,-1,-1],"loss_changes":[8.6676526E2,1.0507605E2,7.298837E1,2.419223E1,1.2808299E1,3.993396E1,5.1512226E1,1.949295E1,0E0,1.3416409E1,1.0449551E1,2.8326721E1,1.2563351E1,1.4105032E1,9.209358E0,0E0,0E0,0E0,0E0,0E0,0E0,0E0,0E0,0E0,0E0,0E0,0E0,0E0,0E0],"parents":[2147483647,0,0,1,1,2,2,3,3,4,4,5,5,6,6,7,7,9,9,10,10,11,11,12,12,13,13,14,14],"right_children":[2,4,6,8,10,12,14,16,-1,18,20,22,24,26,28,-1,-1,-1,-1,-1,-1,-1,-1,-1,-1,-1,-1,-1,-1],"split_conditions":[6.6E2,6.17E2,1E0,6.1E-1,3E0,1E0,7.31E2,1E0,-7.043459E-2,2.166E1,9.7E-2,6.76E2,7.09E2,4E0,1E0,4.11645E-2,6.657967E-2,1.11797685E-2,-1.6765397E-2,-5.2587856E-2,5.6173332E-2,-2.7821219E-2,-5.7842292E-2,2.2710245E-2,-3.3317525E-2,2.2538451E-2,-6.46312E-2,-6.387025E-2,1.8293073E-2],"split_indices":[1,1,6,14,13,9,1,6,0,21,7,1,1,15,32,0,0,0,0,0,0,0,0,0,0,0,0,0,0],"split_type":[0,0,0,0,0,0,0,0,0,0,0,0,0,0,0,0,0,0,0,0,0,0,0,0,0,0,0,0,0],"sum_hessian":[1.6174327E3,9.1221185E2,7.052209E2,5.779894E2,3.3422244E2,5.929789E2,1.1224203E2,5.742952E2,3.694132E0,3.1268726E2,2.1535204E1,5.536841E2,3.929477E1,7.810115E1,3.414088E1,4.8135266E2,9.2942604E1,2.6228473E2,5.0402523E1,1.6836226E0,1.9851582E1,9.8424385E1,4.552597E2,2.3271969E1,1.6022799E1,7.411051E1,3.99064E0,3.0755735E1,3.3851464E0],"tree_param":{"num_deleted":"0","num_feature":"48","num_nodes":"29","size_leaf_vector":"1"}},{"base_weights":[2.2701472E-2,6.489194E-1,-7.605809E-1,1.0109442E0,3.4580663E-1,-9.139216E-1,4.520565E-3,1.019471E0,-5.0048836E-2,2.5911903E-1,7.8637296E-1,-4.1453952E-1,-1.0898458E0,4.3595234E-1,-6.740811E-1,4.7797553E-2,6.661937E-2,2.115687E-2,2.3481706E-3,-2.9327838E-2,4.590175E-2,-2.5307536E-2,4.3539148E-2,-4.5713063E-2,-6.2418412E-2,-3.3778023E-2,3.2800626E-2,-6.423547E-2,-9.509297E-3],"categories":[],"categories_nodes":[],"categories_segments":[],"categories_sizes":[],"default_left":[0,0,0,0,0,0,0,0,0,0,0,0,0,0,0,0,0,0,0,0,0,0,0,0,0,0,0,0,0],"id":6,"left_children":[1,3,5,7,9,11,13,15,-1,17,19,21,23,25,27,-1,-1,-1,-1,-1,-1,-1,-1,-1,-1,-1,-1,-1,-1],"loss_changes":[7.9454364E2,9.842847E1,8.4438385E1,8.048889E0,1.8565964E1,5.2219208E1,3.576351E1,6.8450317E0,0E0,1.4321896E1,1.505579E1,1.90215E1,1.1181824E1,1.8707798E1,1.3785135E1,0E0,0E0,0E0,0E0,0E0,0E0,0E0,0E0,0E0,0E0,0E0,0E0,0E0,0E0],"parents":[2147483647,0,0,1,1,2,2,3,3,4,4,5,5,6,6,7,7,9,9,10,10,11,11,12,12,13,13,14,14],"right_children":[2,4,6,8,10,12,14,16,-1,18,20,22,24,26,28,-1,-1,-1,-1,-1,-1,-1,-1,-1,-1,-1,-1,-1,-1],"split_conditions":[6.56E2,5.93E2,1E0,1.6996934E6,1E0,6.8E2,7.15E2,1E0,-5.0048836E-2,6.3E2,1.01E-1,1.8348831E6,8.928559E4,1.476E1,1.4480656E5,4.7797553E-2,6.661937E-2,2.115687E-2,2.3481706E-3,-2.9327838E-2,4.590175E-2,-2.5307536E-2,4.3539148E-2,-4.5713063E-2,-6.2418412E-2,-3.3778023E-2,3.2800626E-2,-6.423547E-2,-9.509297E-3],"split_indices":[1,1,6,11,6,1,1,6,0,1,7,20,17,21,12,0,0,0,0,0,0,0,0,0,0,0,0,0,0],"split_type":[0,0,0,0,0,0,0,0,0,0,0,0,0,0,0,0,0,0,0,0,0,0,0,0,0,0,0,0,0],"sum_hessian":[1.6178406E3,8.9915576E2,7.1868475E2,4.0869403E2,4.904617E2,5.98533E2,1.2015178E2,4.0746045E2,1.2336E0,4.1115027E2,7.931142E1,1.5679834E2,4.4173465E2,7.367152E1,4.6480263E1,3.4207605E2,6.538439E1,2.313208E2,1.7982948E2,6.63795E0,7.267346E1,1.4693199E2,9.866356E0,2.1279903E2,2.2893564E2,1.1833119E1,6.1838394E1,1.981754E1,2.6662724E1],"tree_param":{"num_deleted":"0","num_feature":"48","num_nodes":"29","size_leaf_vector":"1"}},{"base_weights":[-1.9932354E-2,4.7560883E-1,-8.810412E-1,7.832399E-1,8.478135E-2,-4.7283304E-1,-1.0629693E0,7.0281196E-1,1.2025744E0,-2.0187332E-1,2.7150273E-1,-6.359089E-1,1.6325338E-1,-1.1211748E0,-2.0530595E-1,6.2932156E-2,3.1390626E-2,6.514626E-2,-7.571003E-3,-3.1217202E-3,-6.996368E-2,6.6875825E-3,4.2486943E-2,1.621658E-2,-4.0820077E-2,3.8490098E-2,-3.4664463E-2,-5.6829225E-2,2.642029E-2,-2.4142012E-2,7.701301E-2],"categories":[],"categories_nodes":[],"categories_segments":[],"categories_sizes":[],"default_left":[0,0,0,0,0,0,0,0,0,0,0,0,0,0,0,0,0,0,0,0,0,0,0,0,0,0,0,0,0,0,0],"id":7,"left_children":[1,3,5,7,9,11,13,15,17,19,21,23,25,27,29,-1,-1,-1,-1,-1,-1,-1,-1,-1,-1,-1,-1,-1,-1,-1,-1],"loss_changes":[6.914013E2,1.23587814E2,4.3449493E1,1.8559845E1,2.4360615E1,1.9216343E1,2.0166382E1,1.9435516E1,1.258757E1,2.9915066E1,2.1823633E1,2.571769E1,2.0480669E1,1.0320801E1,1.3916153E1,0E0,0E0,0E0,0E0,0E0,0E0,0E0,0E0,0E0,0E0,0E0,0E0,0E0,0E0,0E0,0E0],"parents":[2147483647,0,0,1,1,2,2,3,3,4,4,5,5,6,6,7,7,8,8,9,9,10,10,11,11,12,12,13,13,14,14],"right_children":[2,4,6,8,10,12,14,16,18,20,22,24,26,28,30,-1,-1,-1,-1,-1,-1,-1,-1,-1,-1,-1,-1,-1,-1,-1,-1],"split_conditions":[6.73E2,6.16E2,6.99E2,1E0,7.900808E4,1E0,1E0,5.09E2,1E0,2.265E1,6.442837E4,1E0,4.032338E5,2.97E1,8.21E2,6.2932156E-2,3.1390626E-2,6.514626E-2,-7.571003E-3,-3.1217202E-3,-6.996368E-2,6.6875825E-3,4.2486943E-2,1.621658E-2,-4.0820077E-2,3.8490098E-2,-3.4664463E-2,-5.6829225E-2,2.642029E-2,-2.4142012E-2,7.701301E-2],"split_indices":[1,1,1,6,17,6,9,1,27,21,10,0,20,0,1,0,0,0,0,0,0,0,0,0,0,0,0,0,0,0,0],"split_type":[0,0,0,0,0,0,0,0,0,0,0,0,0,0,0,0,0,0,0,0,0,0,0,0,0,0,0,0,0,0,0],"sum_hessian":[1.6183065E3,1.0274746E3,5.908318E2,5.74369E2,4.5310568E2,1.8325203E2,4.0757977E2,4.8417978E2,9.018921E1,1.7869382E2,2.7441187E2,1.4585811E2,3.7393917E1,3.813895E2,2.6190285E1,5.5687805E1,4.2849197E2,8.400121E1,6.187995E0,1.6099756E2,1.7696249E1,2.226113E2,5.180057E1,2.295232E1,1.22905785E2,2.1950937E1,1.544298E1,3.781678E2,3.2217245E0,2.3221586E1,2.968699E0],"tree_param":{"num_deleted":"0","num_feature":"48","num_nodes":"31","size_leaf_vector":"1"}},{"base_weights":[-1.2641803E-2,6.2108535E-1,-5.726207E-1,8.2729906E-1,3.8835573E-1,-2.2737934E-1,-9.640897E-1,8.8515174E-1,-4.506943E-2,5.807564E-1,1.7450953E-1,-3.6255231E-1,4.0140507E-1,-1.0409598E0,-4.9928048E-1,7.185001E-2,4.1847166E-2,6.555788E-2,-3.2768913E-2,1.3988882E-2,4.990186E-2,1.1759817E-2,-7.3766E-2,-8.238268E-3,-3.5404857E-2,3.9027985E-2,-3.961748E-3,-4.792808E-2,-7.101359E-2,-3.167176E-2,6.5953635E-2],"categories":[],"categories_nodes":[],"categories_segments":[],"categories_sizes":[],"default_left":[0,0,0,0,0,0,0,0,0,0,0,0,0,0,0,0,0,0,0,0,0,0,0,0,0,0,0,0,0,0,0],"id":8,"left_children":[1,3,5,7,9,11,13,15,17,19,21,23,25,27,29,-1,-1,-1,-1,-1,-1,-1,-1,-1,-1,-1,-1,-1,-1,-1,-1],"loss_changes":[5.6778796E2,3.5700165E1,1.14578E2,2.007962E1,1.4484257E1,3.8618946E1,1.3691528E1,8.705261E0,2.2087244E1,2.3103287E1,1.7300066E1,2.5381893E1,1.4744077E1,9.276886E0,1.5073249E1,0E0,0E0,0E0,0E0,0E0,0E0,0E0,0E0,0E0,0E0,0E0,0E0,0E0,0E0,0E0,0E0],"parents":[2147483647,0,0,1,1,2,2,3,3,4,4,5,5,6,6,7,7,8,8,9,9,10,10,11,11,12,12,13,13,14,14],"right_children":[2,4,6,8,10,12,14,16,18,20,22,24,26,28,30,-1,-1,-1,-1,-1,-1,-1,-1,-1,-1,-1,-1,-1,-1,-1,-1],"split_conditions":[6.38E2,5.91E2,6.99E2,5.4E-1,3.6E1,1E0,1E0,4.76E2,1.13E-1,1.332E1,3.532E1,5.7E0,2.49E-1,5.507838E4,3E0,7.185001E-2,4.1847166E-2,6.555788E-2,-3.2768913E-2,1.3988882E-2,4.990186E-2,1.1759817E-2,-7.3766E-2,-8.238268E-3,-3.5404857E-2,3.9027985E-2,-3.961748E-3,-4.792808E-2,-7.101359E-2,-3.167176E-2,6.5953635E-2],"split_indices":[1,1,1,7,22,6,6,1,14,18,18,0,14,10,13,0,0,0,0,0,0,0,0,0,0,0,0,0,0,0,0],"split_type":[0,0,0,0,0,0,0,0,0,0,0,0,0,0,0,0,0,0,0,0,0,0,0,0,0,0,0,0,0,0,0],"sum_hessian":[1.5979692E3,7.495715E2,8.483978E2,3.9607135E2,3.535001E2,4.516569E2,3.9674094E2,3.71425E2,2.4646366E1,1.8517741E2,1.6832268E2,3.7209018E2,7.956671E1,3.3937552E2,5.7365444E1,2.7525814E1,3.4389917E2,7.2925425E0,1.7353825E1,1.0855133E2,7.6626076E1,1.6317784E2,5.1448402E0,2.3757884E2,1.3451134E2,4.4130333E1,3.543638E1,2.8170715E2,5.7668343E1,5.4030796E1,3.3346484E0],"tree_param":{"num_deleted":"0","num_feature":"48","num_nodes":"31","size_leaf_vector":"1"}},{"base_weights":[-8.661784E-3,-1.1916323E-1,5.276204E-1,-1.5325855E-1,4.352896E-1,5.5445546E-1,-6.427673E-2,-3.8257566E-1,-7.8153715E-2,1.5047975E-1,1.1067519E0,-8.582381E-1,5.861005E-1,-1.3145982E-2,-4.901305E-2,-5.9906743E-3,1.339058E-2,-1.3321774E-3,4.8470385E-2,-2.1835824E-2,6.896035E-2,3.750391E-2,-6.759991E-2,-6.0486417E-2,3.0416077E-2],"categories":[],"categories_nodes":[],"categories_segments":[],"categories_sizes":[],"default_left":[0,0,0,0,0,0,0,0,0,0,0,0,0,0,0,0,0,0,0,0,0,0,0,0,0],"id":9,"left_children":[1,3,5,7,9,11,-1,13,15,17,19,21,23,-1,-1,-1,-1,-1,-1,-1,-1,-1,-1,-1,-1],"loss_changes":[9.461903E1,2.5092623E1,1.3985764E1,2.1462013E1,1.4549536E1,1.2551476E1,0E0,2.174149E1,1.3598368E1,8.031195E0,1.0174028E1,6.0255866E0,1.1278885E1,0E0,0E0,0E0,0E0,0E0,0E0,0E0,0E0,0E0,0E0,0E0,0E0],"parents":[2147483647,0,0,1,1,2,2,3,3,4,4,5,5,7,7,8,8,9,9,10,10,11,11,12,12],"right_children":[2,4,6,8,10,12,-1,14,16,18,20,22,24,-1,-1,-1,-1,-1,-1,-1,-1,-1,-1,-1,-1],"split_conditions":[1E0,3E0,9.62E1,-1.41E0,7.01E1,2.43E1,-6.427673E-2,1E0,1E0,1E0,1.9148745E5,6E-1,-2.397E1,-1.3145982E-2,-4.901305E-2,-5.9906743E-3,1.339058E-2,-1.3321774E-3,4.8470385E-2,-2.1835824E-2,6.896035E-2,3.750391E-2,-6.759991E-2,-6.0486417E-2,3.0416077E-2],"split_indices":[6,13,16,18,19,19,0,45,41,35,20,0,18,0,0,0,0,0,0,0,0,0,0,0,0],"split_type":[0,0,0,0,0,0,0,0,0,0,0,0,0,0,0,0,0,0,0,0,0,0,0,0,0],"sum_hessian":[1.5946166E3,1.322825E3,2.7179153E2,1.2468738E3,7.595122E1,2.6851172E2,3.2798269E0,3.066099E2,9.402639E2,5.4189934E1,2.1761286E1,5.3107185E0,2.63201E2,2.566656E2,4.99443E1,8.39793E2,1.0047087E2,4.5349007E1,8.840926E0,3.1745336E0,1.8586752E1,1.1255075E0,4.185211E0,2.5637853E0,2.606372E2],"tree_param":{"num_deleted":"0","num_feature":"48","num_nodes":"25","size_leaf_vector":"1"}},{"base_weights":[2.0411383E-2,4.8008367E-1,-8.32699E-1,8.4970033E-1,2.4281618E-1,-5.272984E-1,-9.64098E-1,8.708806E-1,-1.615384E-1,1.9534998E-1,9.571025E-1,-4.238903E-1,-1.2760849E0,-1.0082306E0,-1.9511724E-1,4.7157403E-2,2.7195001E-2,-5.2203726E-2,6.2491495E-2,3.8711306E-2,6.768959E-3,6.481143E-2,3.893311E-4,-1.2044919E-2,-4.4117402E-2,-7.279018E-2,4.1311663E-2,-5.2251726E-2,3.6809451E-3,-4.9590137E-2,1.8500075E-2],"categories":[],"categories_nodes":[],"categories_segments":[],"categories_sizes":[],"default_left":[0,0,0,0,0,0,0,0,0,0,0,0,0,0,0,0,0,0,0,0,0,0,0,0,0,0,0,0,0,0,0],"id":10,"left_children":[1,3,5,7,9,11,13,15,17,19,21,23,25,27,29,-1,-1,-1,-1,-1,-1,-1,-1,-1,-1,-1,-1,-1,-1,-1,-1],"loss_changes":[6.200664E2,8.990405E1,2.1709839E1,8.736176E0,2.1077686E1,1.2526405E1,1.289975E1,8.779236E0,1.2610568E1,2.0355488E1,1.2489178E1,1.2353191E1,8.752068E0,1.4598602E1,1.0355264E1,0E0,0E0,0E0,0E0,0E0,0E0,0E0,0E0,0E0,0E0,0E0,0E0,0E0,0E0,0E0,0E0],"parents":[2147483647,0,0,1,1,2,2,3,3,4,4,5,5,6,6,7,7,8,8,9,9,10,10,11,11,12,12,13,13,14,14],"right_children":[2,4,6,8,10,12,14,16,18,20,22,24,26,28,30,-1,-1,-1,-1,-1,-1,-1,-1,-1,-1,-1,-1,-1,-1,-1,-1],"split_conditions":[6.73E2,5.93E2,6.99E2,9.9506675E5,1E0,1E0,1E0,4.8E1,4.730937E4,5.36E1,8.12E1,7.5E0,6.98E2,9.59E1,1E0,4.7157403E-2,2.7195001E-2,-5.2203726E-2,6.2491495E-2,3.8711306E-2,6.768959E-3,6.481143E-2,3.893311E-4,-1.2044919E-2,-4.4117402E-2,-7.279018E-2,4.1311663E-2,-5.2251726E-2,3.6809451E-3,-4.9590137E-2,1.8500075E-2],"split_indices":[1,1,1,11,9,37,9,22,10,16,16,0,1,16,13,0,0,0,0,0,0,0,0,0,0,0,0,0,0,0,0],"split_type":[0,0,0,0,0,0,0,0,0,0,0,0,0,0,0,0,0,0,0,0,0,0,0,0,0,0,0,0,0,0,0],"sum_hessian":[1.5791726E3,1.0265077E3,5.5266486E2,4.0031445E2,6.261933E2,1.6776181E2,3.8490305E2,3.9223785E2,8.0765915E0,5.8836816E2,3.782513E1,1.4878111E2,1.898071E1,3.6371777E2,2.1185272E1,3.19696E2,7.254185E1,5.1293936E0,2.9471977E0,5.4114143E1,5.34254E2,2.7600067E1,1.0225062E1,1.074273E2,4.1353806E1,1.7769213E1,1.2114944E0,3.517843E2,1.1933476E1,8.478098E0,1.2707173E1],"tree_param":{"num_deleted":"0","num_feature":"48","num_nodes":"31","size_leaf_vector":"1"}},{"base_weights":[-2.0901654E-2,-1.2181918E-1,4.7319978E-1,-1.6723791E-1,5.7832485E-1,-1.0988321E0,5.26996E-1,3.6950472E-1,-2.0451191E-1,7.071034E-1,-9.019278E-1,3.125525E-2,-7.3542416E-2,5.9168214E-1,-7.401847E-1,2.6506288E-2,-5.131469E-2,-2.8004587E-2,-8.227526E-3,4.7462475E-2,-5.5577833E-4,-6.72591E-2,3.539873E-2,-6.327579E-2,3.1243945E-2,1.221783E-2,-7.178237E-2],"categories":[],"categories_nodes":[],"categories_segments":[],"categories_sizes":[],"default_left":[0,0,0,0,0,0,0,0,0,0,0,0,0,0,0,0,0,0,0,0,0,0,0,0,0,0,0],"id":11,"left_children":[1,3,5,7,9,11,13,15,17,19,21,-1,-1,23,25,-1,-1,-1,-1,-1,-1,-1,-1,-1,-1,-1,-1],"loss_changes":[7.792326E1,4.135745E1,2.299453E1,2.4468628E1,1.5748135E1,6.751957E0,2.1500679E1,1.8374043E1,1.611692E1,1.279044E1,5.793126E0,0E0,0E0,1.5897942E1,9.200209E0,0E0,0E0,0E0,0E0,0E0,0E0,0E0,0E0,0E0,0E0,0E0,0E0],"parents":[2147483647,0,0,1,1,2,2,3,3,4,4,5,5,6,6,7,7,8,8,9,9,10,10,13,13,14,14],"right_children":[2,4,6,8,10,12,14,16,18,20,22,-1,-1,24,26,-1,-1,-1,-1,-1,-1,-1,-1,-1,-1,-1,-1],"split_conditions":[1E0,1E0,5.1E-2,1.1911296E5,1E0,2.434875E4,8.32E1,3.1537216E5,3.550749E4,1.7184161E5,5.35E-1,3.125525E-2,-7.3542416E-2,-2.277E1,1.754504E4,2.6506288E-2,-5.131469E-2,-2.8004587E-2,-8.227526E-3,4.7462475E-2,-5.5577833E-4,-6.72591E-2,3.539873E-2,-6.327579E-2,3.1243945E-2,1.221783E-2,-7.178237E-2],"split_indices":[6,9,7,20,35,4,19,17,4,17,7,0,0,18,10,0,0,0,0,0,0,0,0,0,0,0,0],"split_type":[0,0,0,0,0,0,0,0,0,0,0,0,0,0,0,0,0,0,0,0,0,0,0,0,0,0,0],"sum_hessian":[1.5605756E3,1.2965216E3,2.6405402E2,1.2182539E3,7.8267654E1,8.094381E0,2.5595964E2,7.852902E1,1.1397249E3,7.2484024E1,5.783632E0,1.3159417E0,6.7784395E0,2.4403537E2,1.1924268E1,7.0981094E1,7.547926E0,1.1383099E2,1.0258939E3,5.3967365E1,1.8516659E1,4.663942E0,1.11969E0,3.6335578E0,2.4040181E2,5.2047434E0,6.7195244E0],"tree_param":{"num_deleted":"0","num_feature":"48","num_nodes":"27","size_leaf_vector":"1"}},{"base_weights":[1.9824134E-2,5.294482E-1,-6.280235E-1,7.8409344E-1,3.0619213E-1,-3.708208E-1,-1.0160178E0,1.0553333E0,6.588848E-1,2.256469E-1,6.977353E-1,-5.357755E-1,3.011384E-1,-3.8833177E-1,-1.0850036E0,1.9496372E-2,6.1695855E-2,4.5646094E-2,2.2460435E-2,8.576846E-3,4.9085006E-2,-6.1683524E-3,4.7194343E-2,-3.0164389E-2,1.3855959E-2,-1.7658584E-2,3.1291325E-2,1.5092117E-2,-6.49443E-2,-2.2419652E-2,-5.8567084E-2],"categories":[],"categories_nodes":[],"categories_segments":[],"categories_sizes":[],"default_left":[0,0,0,0,0,0,0,0,0,0,0,0,0,0,0,0,0,0,0,0,0,0,0,0,0,0,0,0,0,0,0],"id":12,"left_children":[1,3,5,7,9,11,13,15,17,19,21,23,25,27,29,-1,-1,-1,-1,-1,-1,-1,-1,-1,-1,-1,-1,-1,-1,-1,-1],"loss_changes":[5.2388043E2,5.0249344E1,6.934338E1,1.3372986E1,1.4818066E1,4.6905014E1,1.1613678E1,1.4867844E1,1.4827927E1,1.6004013E1,1.6394722E1,1.8769012E1,1.8015339E1,1.8666563E1,1.3207733E1,0E0,0E0,0E0,0E0,0E0,0E0,0E0,0E0,0E0,0E0,0E0,0E0,0E0,0E0,0E0,0E0],"parents":[2147483647,0,0,1,1,2,2,3,3,4,4,5,5,6,6,7,7,8,8,9,9,10,10,11,11,12,12,13,13,14,14],"right_children":[2,4,6,8,10,12,14,16,18,20,22,24,26,28,30,-1,-1,-1,-1,-1,-1,-1,-1,-1,-1,-1,-1,-1,-1,-1,-1],"split_conditions":[6.56E2,5.94E2,7.2E2,5.34E2,1E0,1E0,1.8E1,-1.01E0,3.8572038E5,3E0,1.0143326E5,1E0,7.31E1,2.502886E4,1.327E1,1.9496372E-2,6.1695855E-2,4.5646094E-2,2.2460435E-2,8.576846E-3,4.9085006E-2,-6.1683524E-3,4.7194343E-2,-3.0164389E-2,1.3855959E-2,-1.7658584E-2,3.1291325E-2,1.5092117E-2,-6.49443E-2,-2.2419652E-2,-5.8567084E-2],"split_indices":[1,1,1,1,6,6,22,18,20,13,4,9,16,10,21,0,0,0,0,0,0,0,0,0,0,0,0,0,0,0,0],"split_type":[0,0,0,0,0,0,0,0,0,0,0,0,0,0,0,0,0,0,0,0,0,0,0,0,0,0,0,0,0,0,0],"sum_hessian":[1.5847457E3,8.870992E2,6.976466E2,4.132432E2,4.7385596E2,4.2071133E2,2.7693527E2,1.2816667E2,2.8507654E2,3.943165E2,7.953945E1,3.379524E2,8.275896E1,2.8079113E1,2.4885614E2,2.779301E1,1.00373665E2,1.27385864E2,1.5769067E2,3.6912543E2,2.5191061E1,1.846003E1,6.107942E1,3.1227524E2,2.5677132E1,2.7418198E1,5.5340763E1,1.6352724E1,1.172639E1,3.0459255E1,2.183969E2],"tree_param":{"num_deleted":"0","num_feature":"48","num_nodes":"31","size_leaf_vector":"1"}},{"base_weights":[-1.6166557E-2,4.7635788E-1,-6.5261185E-1,7.099586E-1,2.863505E-1,-7.687871E-1,-7.490255E-2,8.31491E-1,5.432317E-1,2.29128E-1,1.0894688E0,-4.0615892E-1,-9.4037676E-1,8.1594266E-2,-7.062765E-2,3.8843542E-2,7.710632E-2,-8.23018E-2,3.0303437E-2,1.3651869E-2,-3.457973E-2,-6.101198E-3,7.65044E-2,-3.8312893E-2,-1.235722E-3,-4.9985677E-2,-1.7015965E-3,1.9157114E-2,-2.1368876E-2],"categories":[],"categories_nodes":[],"categories_segments":[],"categories_sizes":[],"default_left":[0,0,0,0,0,0,0,0,0,0,0,0,0,0,0,0,0,0,0,0,0,0,0,0,0,0,0,0,0],"id":13,"left_children":[1,3,5,7,9,11,13,15,17,19,21,23,25,27,-1,-1,-1,-1,-1,-1,-1,-1,-1,-1,-1,-1,-1,-1,-1],"loss_changes":[4.894798E2,3.886989E1,4.5662567E1,7.535492E0,2.2136913E1,3.4902008E1,2.4223053E1,7.578308E0,2.425668E1,1.8623854E1,1.7339565E1,2.5240705E1,2.0625763E1,1.613257E1,0E0,0E0,0E0,0E0,0E0,0E0,0E0,0E0,0E0,0E0,0E0,0E0,0E0,0E0,0E0],"parents":[2147483647,0,0,1,1,2,2,3,3,4,4,5,5,6,6,7,7,8,8,9,9,10,10,11,11,12,12,13,13],"right_children":[2,4,6,8,10,12,14,16,18,20,22,24,26,28,-1,-1,-1,-1,-1,-1,-1,-1,-1,-1,-1,-1,-1,-1,-1],"split_conditions":[6.56E2,5.93E2,1E0,5.3075525E5,1E0,6.86E2,2.7284722E5,3E0,5.51267E5,8.32E1,3.3475203E5,2.517671E4,1E0,7.15E2,-7.062765E-2,3.8843542E-2,7.710632E-2,-8.23018E-2,3.0303437E-2,1.3651869E-2,-3.457973E-2,-6.101198E-3,7.65044E-2,-3.8312893E-2,-1.235722E-3,-4.9985677E-2,-1.7015965E-3,1.9157114E-2,-2.1368876E-2],"split_indices":[1,1,6,20,9,1,17,13,20,19,20,10,9,1,0,0,0,0,0,0,0,0,0,0,0,0,0,0,0],"split_type":[0,0,0,0,0,0,0,0,0,0,0,0,0,0,0,0,0,0,0,0,0,0,0,0,0,0,0,0,0],"sum_hessian":[1.5595225E3,8.793069E2,6.8021564E2,3.9318143E2,4.8612546E2,5.660536E2,1.14162056E2,2.2510693E2,1.680745E2,4.5499237E2,3.1133076E1,1.8289673E2,3.8315683E2,1.0304539E2,1.1116671E1,2.1098372E2,1.4123213E1,3.986536E0,1.6408795E2,4.3495285E2,2.0039505E1,8.496049E0,2.2637028E1,9.35618E1,8.933492E1,3.5951688E2,2.363996E1,6.486334E1,3.818204E1],"tree_param":{"num_deleted":"0","num_feature":"48","num_nodes":"29","size_leaf_vector":"1"}},{"base_weights":[1.604752E-2,3.7491953E-1,-8.057536E-1,6.0616E-1,-1.51505275E-2,-8.8567144E-1,1.696868E-1,7.386389E-1,4.0701234E-1,6.584273E-1,-1.0323916E-1,-9.95281E-1,-3.5194305E-1,8.562233E-1,-4.148516E-1,3.970356E-2,1.3952932E-2,1.570248E-2,4.2962786E-2,4.7858257E-2,-1.6234536E-2,-1.0611138E-2,2.1202466E-2,2.530451E-2,-5.0554704E-2,1.4572165E-2,-3.0275261E-2,6.331553E-2,-2.6345247E-2,-4.707141E-2,4.3614667E-2],"categories":[],"categories_nodes":[],"categories_segments":[],"categories_sizes":[],"default_left":[0,0,0,0,0,0,0,0,0,0,0,0,0,0,0,0,0,0,0,0,0,0,0,0,0,0,0,0,0,0,0],"id":14,"left_children":[1,3,5,7,9,11,13,15,17,19,21,23,25,27,29,-1,-1,-1,-1,-1,-1,-1,-1,-1,-1,-1,-1,-1,-1,-1,-1],"loss_changes":[4.661756E2,9.924638E1,3.7604706E1,1.7923187E1,2.4421648E1,2.5638489E1,1.5292875E1,1.0314514E1,1.14248085E1,1.4292036E1,2.0998465E1,9.248596E0,1.2776448E1,1.0561625E1,1.4904373E1,0E0,0E0,0E0,0E0,0E0,0E0,0E0,0E0,0E0,0E0,0E0,0E0,0E0,0E0,0E0,0E0],"parents":[2147483647,0,0,1,1,2,2,3,3,4,4,5,5,6,6,7,7,8,8,9,9,10,10,11,11,12,12,13,13,14,14],"right_children":[2,4,6,8,10,12,14,16,18,20,22,24,26,28,30,-1,-1,-1,-1,-1,-1,-1,-1,-1,-1,-1,-1,-1,-1,-1,-1],"split_conditions":[6.8E2,6.3E2,1E0,5.93E2,1.5777931E5,1E0,7.12E2,1E0,9.12E1,2.481526E5,1E0,5.913972E4,2.4E1,2.3973212E5,7.622899E5,3.970356E-2,1.3952932E-2,1.570248E-2,4.2962786E-2,4.7858257E-2,-1.6234536E-2,-1.0611138E-2,2.1202466E-2,2.530451E-2,-5.0554704E-2,1.4572165E-2,-3.0275261E-2,6.331553E-2,-2.6345247E-2,-4.707141E-2,4.3614667E-2],"split_indices":[1,1,9,1,20,6,1,36,16,12,6,20,22,12,20,0,0,0,0,0,0,0,0,0,0,0,0,0,0,0,0],"split_type":[0,0,0,0,0,0,0,0,0,0,0,0,0,0,0,0,0,0,0,0,0,0,0,0,0,0,0,0,0,0,0],"sum_hessian":[1.578653E3,1.0991913E3,4.7946164E2,6.8974457E2,4.0944678E2,4.4323907E2,3.6222553E1,4.1257706E2,2.7716748E2,4.660474E1,3.62842E2,3.670042E2,7.623486E1,1.6444183E1,1.977837E1,3.6752075E2,4.5056324E1,2.3131334E2,4.585413E1,3.5763702E1,1.0841037E1,3.0118796E2,6.1654076E1,3.502005E0,3.635022E2,2.1508924E1,5.4725937E1,1.2748736E1,3.6954477E0,1.4226741E1,5.551629E0],"tree_param":{"num_deleted":"0","num_feature":"48","num_nodes":"31","size_leaf_vector":"1"}},{"base_weights":[-4.4141375E-3,3.5605404E-1,-7.127247E-1,6.052092E-1,4.3201007E-2,-8.168617E-1,-2.4435374E-1,8.7256557E-1,5.249037E-1,-6.9164485E-1,1.09424934E-1,-1.0259967E0,-6.610389E-1,2.103805E-1,-8.210805E-1,1.4046299E-2,5.0941356E-2,2.183305E-2,4.716244E-2,-4.8251823E-2,3.7390694E-2,-8.419729E-3,1.4172563E-2,-5.4675765E-2,2.4127962E-2,5.3864505E-2,-3.4662288E-2,3.0339763E-2,-3.8840666E-2,-6.5202534E-2,-7.659069E-3],"categories":[],"categories_nodes":[],"categories_segments":[],"categories_sizes":[],"default_left":[0,0,0,0,0,0,0,0,0,0,0,0,0,0,0,0,0,0,0,0,0,0,0,0,0,0,0,0,0,0,0],"id":15,"left_children":[1,3,5,7,9,11,13,15,17,19,21,23,25,27,29,-1,-1,-1,-1,-1,-1,-1,-1,-1,-1,-1,-1,-1,-1,-1,-1],"loss_changes":[3.9522998E2,7.9940475E1,2.526474E1,1.1801514E1,2.2260921E1,1.3226715E1,2.5452023E1,1.0996483E1,1.5890846E1,1.5606813E1,2.0308329E1,1.8899155E1,1.4593323E1,2.187434E1,1.3574003E1,0E0,0E0,0E0,0E0,0E0,0E0,0E0,0E0,0E0,0E0,0E0,0E0,0E0,0E0,0E0,0E0],"parents":[2147483647,0,0,1,1,2,2,3,3,4,4,5,5,6,6,7,7,8,8,9,9,10,10,11,11,12,12,13,13,14,14],"right_children":[2,4,6,8,10,12,14,16,18,20,22,24,26,28,30,-1,-1,-1,-1,-1,-1,-1,-1,-1,-1,-1,-1,-1,-1,-1,-1],"split_conditions":[6.73E2,6.16E2,1E0,5.34E2,3.355678E4,1E0,2E0,-1.01E0,1E0,1.52E1,7.732356E4,1.94E1,5.913972E4,2.3701445E5,2.2965062E5,1.4046299E-2,5.0941356E-2,2.183305E-2,4.716244E-2,-4.8251823E-2,3.7390694E-2,-8.419729E-3,1.4172563E-2,-5.4675765E-2,2.4127962E-2,5.3864505E-2,-3.4662288E-2,3.0339763E-2,-3.8840666E-2,-6.5202534E-2,-7.659069E-3],"split_indices":[1,1,6,1,4,13,15,18,6,0,17,0,20,11,11,0,0,0,0,0,0,0,0,0,0,0,0,0,0,0,0],"split_type":[0,0,0,0,0,0,0,0,0,0,0,0,0,0,0,0,0,0,0,0,0,0,0,0,0,0,0,0,0,0,0],"sum_hessian":[1.5459645E3,1.0248849E3,5.210796E2,5.7000244E2,4.5488248E2,4.2568845E2,9.5391106E1,1.2938441E2,4.40618E2,3.6824112E1,4.1805835E2,1.7936813E2,2.4632031E2,5.3691753E1,4.1699352E1,2.6224573E1,1.03159836E2,3.6555435E2,7.506366E1,3.1223516E1,5.600595E0,1.610257E2,2.5703265E2,1.719474E2,7.420739E0,3.8904152E0,2.424299E2,3.8583576E1,1.5108177E1,2.3647177E1,1.8052177E1],"tree_param":{"num_deleted":"0","num_feature":"48","num_nodes":"31","size_leaf_vector":"1"}},{"base_weights":[-1.6744355E-2,3.1765392E-1,-7.336652E-1,5.737233E-1,1.2449427E-2,-5.002213E-1,-9.524403E-1,7.4832386E-1,4.4887128E-1,-2.4206491E-2,7.6727384E-1,-5.552363E-1,4.497279E-1,-3.3942032E-1,-1.0524617E0,1.8382352E-3,3.9220553E-2,1.1898215E-2,3.3610612E-2,1.6868211E-3,-3.028116E-2,5.2960183E-2,-5.8493823E-2,-1.9744065E-2,-4.2557005E-2,-2.4161488E-2,9.005769E-2,-5.3076684E-2,1.3857844E-2,-3.299664E-2,-5.8759388E-2],"categories":[],"categories_nodes":[],"categories_segments":[],"categories_sizes":[],"default_left":[0,0,0,0,0,0,0,0,0,0,0,0,0,0,0,0,0,0,0,0,0,0,0,0,0,0,0,0,0,0,0],"id":16,"left_children":[1,3,5,7,9,11,13,15,17,19,21,23,25,27,29,-1,-1,-1,-1,-1,-1,-1,-1,-1,-1,-1,-1,-1,-1,-1,-1],"loss_changes":[3.6800568E2,8.1805214E1,2.445935E1,1.2072342E1,1.32611265E1,1.2704243E1,1.5029068E1,6.026657E0,1.5590904E1,1.5430221E1,1.3791521E1,1.03739395E1,1.8015642E1,1.6623856E1,9.59436E0,0E0,0E0,0E0,0E0,0E0,0E0,0E0,0E0,0E0,0E0,0E0,0E0,0E0,0E0,0E0,0E0],"parents":[2147483647,0,0,1,1,2,2,3,3,4,4,5,5,6,6,7,7,8,8,9,9,10,10,11,11,12,12,13,13,14,14],"right_children":[2,4,6,8,10,12,14,16,18,20,22,24,26,28,30,-1,-1,-1,-1,-1,-1,-1,-1,-1,-1,-1,-1,-1,-1,-1,-1],"split_conditions":[6.76E2,6.17E2,7.2E2,3.72542E5,3.532E1,1.37E2,1.355E1,6.9E-2,9.69E0,7.97E1,4.56E-1,3.14E-1,5.09E-1,1.218E1,2.4E1,1.8382352E-3,3.9220553E-2,1.1898215E-2,3.3610612E-2,1.6868211E-3,-3.028116E-2,5.2960183E-2,-5.8493823E-2,-1.9744065E-2,-4.2557005E-2,-2.4161488E-2,9.005769E-2,-5.3076684E-2,1.3857844E-2,-3.299664E-2,-5.8759388E-2],"split_indices":[1,1,1,20,18,8,21,7,18,19,7,7,7,21,22,0,0,0,0,0,0,0,0,0,0,0,0,0,0,0,0],"split_type":[0,0,0,0,0,0,0,0,0,0,0,0,0,0,0,0,0,0,0,0,0,0,0,0,0,0,0,0,0,0,0],"sum_hessian":[1.5330662E3,1.045816E3,4.8725018E2,5.682061E2,4.776099E2,2.3731242E2,2.4993774E2,2.3482253E2,3.333836E2,4.5641342E2,2.1196497E1,2.2471394E2,1.2598475E1,3.5676155E1,2.1426158E2,1.1431781E1,2.2339073E2,1.7252707E2,1.6085654E2,4.1590686E2,4.0506535E1,1.8814375E1,2.3821223E0,1.4725087E2,7.746309E1,7.83323E0,4.7652454E0,1.6099422E1,1.957673E1,5.255283E1,1.6170876E2],"tree_param":{"num_deleted":"0","num_feature":"48","num_nodes":"31","size_leaf_vector":"1"}},{"base_weights":[-1.0936763E-2,4.1810378E-1,-5.406281E-1,6.19118E-1,2.460215E-1,-3.5000387E-1,-8.5679084E-1,8.2252866E-1,4.371422E-1,1.0668236E0,2.0939028E-1,-4.6407756E-1,1.248806E-1,-9.085265E-1,2.7113745E-1,1.9065203E-2,4.586969E-2,2.4819074E-2,-2.0939277E-2,-2.9800842E-3,6.851868E-2,4.258703E-3,2.2226607E-2,-2.6245335E-2,1.8274667E-2,1.945932E-2,-4.6278693E-2,-4.8319425E-2,-2.132331E-3,1.06306136E-1,-5.7799984E-2],"categories":[],"categories_nodes":[],"categories_segments":[],"categories_sizes":[],"default_left":[0,0,0,0,0,0,0,0,0,0,0,0,0,0,0,0,0,0,0,0,0,0,0,0,0,0,0,0,0,0,0],"id":17,"left_children":[1,3,5,7,9,11,13,15,17,19,21,23,25,27,29,-1,-1,-1,-1,-1,-1,-1,-1,-1,-1,-1,-1,-1,-1,-1,-1],"loss_changes":[3.432674E2,2.8715057E1,4.043773E1,1.3863815E1,1.3345362E1,2.299319E1,1.5042496E1,7.1971893E0,1.0599556E1,6.5904236E0,1.2616646E1,1.74291E1,2.3346458E1,1.2116837E1,3.393513E1,0E0,0E0,0E0,0E0,0E0,0E0,0E0,0E0,0E0,0E0,0E0,0E0,0E0,0E0,0E0,0E0],"parents":[2147483647,0,0,1,1,2,2,3,3,4,4,5,5,6,6,7,7,8,8,9,9,10,10,11,11,12,12,13,13,14,14],"right_children":[2,4,6,8,10,12,14,16,18,20,22,24,26,28,30,-1,-1,-1,-1,-1,-1,-1,-1,-1,-1,-1,-1,-1,-1,-1,-1],"split_conditions":[6.52E2,5.93E2,7.2E2,3.910285E5,4.46E1,1E0,9.59E1,6.56E1,6E1,4.83E1,1.536E1,1E0,1.6811402E5,1E0,9.69E1,1.9065203E-2,4.586969E-2,2.4819074E-2,-2.0939277E-2,-2.9800842E-3,6.851868E-2,4.258703E-3,2.2226607E-2,-2.6245335E-2,1.8274667E-2,1.945932E-2,-4.6278693E-2,-4.8319425E-2,-2.132331E-3,1.06306136E-1,-5.7799984E-2],"split_indices":[1,1,1,20,16,6,16,16,22,19,18,9,17,9,16,0,0,0,0,0,0,0,0,0,0,0,0,0,0,0,0],"split_type":[0,0,0,0,0,0,0,0,0,0,0,0,0,0,0,0,0,0,0,0,0,0,0,0,0,0,0,0,0,0,0],"sum_hessian":[1.5084728E3,8.335349E2,6.749378E2,3.8325095E2,4.5028397E2,4.2237943E2,2.5255841E2,1.7930528E2,2.0394566E2,1.8035517E1,4.3224844E2,3.4058826E2,8.179115E1,2.4166814E2,1.0890269E1,3.2617645E1,1.4668764E2,1.9113702E2,1.2808646E1,3.999111E0,1.4036406E1,2.837282E2,1.4852026E2,3.176626E2,2.292567E1,6.585166E1,1.5939491E1,2.2642154E2,1.5246593E1,4.5223546E0,6.3679147E0],"tree_param":{"num_deleted":"0","num_feature":"48","num_nodes":"31","size_leaf_vector":"1"}},{"base_weights":[6.9322456E-3,-2.3595205E-2,5.1447856E-1,8.300549E-3,-3.155604E-1,-5.7436954E-2,5.836329E-1,-2.3211574E-2,4.9520287E-1,-4.724062E-1,7.047421E-1,3.0437154E-1,1.0085696E0,8.5139265E-3,-4.727475E-3,-6.2497456E-2,2.9765029E-2,-5.0542783E-3,-4.407748E-2,-3.549753E-2,5.6105465E-2,2.7931703E-2,-2.5970994E-2,-2.1898465E-2,5.9362907E-2],"categories":[],"categories_nodes":[],"categories_segments":[],"categories_sizes":[],"default_left":[0,0,0,0,0,0,0,0,0,0,0,0,0,0,0,0,0,0,0,0,0,0,0,0,0],"id":18,"left_children":[1,3,5,7,9,-1,11,13,15,17,19,21,23,-1,-1,-1,-1,-1,-1,-1,-1,-1,-1,-1,-1],"loss_changes":[2.3737387E1,1.3462147E1,1.06677E1,2.0018517E1,2.311641E1,0E0,9.674452E0,1.6933962E1,1.4597801E1,1.8749226E1,1.2234176E1,1.1221462E1,9.030113E0,0E0,0E0,0E0,0E0,0E0,0E0,0E0,0E0,0E0,0E0,0E0,0E0],"parents":[2147483647,0,0,1,1,2,2,3,3,4,4,6,6,7,7,8,8,9,9,10,10,11,11,12,12],"right_children":[2,4,6,8,10,-1,12,14,16,18,20,22,24,-1,-1,-1,-1,-1,-1,-1,-1,-1,-1,-1,-1],"split_conditions":[1E0,5.03E-1,3.847026E4,4.63E-1,1E0,-5.7436954E-2,5.9340025E5,2.4E1,3.275969E4,2.6E1,2.5E0,3.160291E5,8.111418E4,8.5139265E-3,-4.727475E-3,-6.2497456E-2,2.9765029E-2,-5.0542783E-3,-4.407748E-2,-3.549753E-2,5.6105465E-2,2.7931703E-2,-2.5970994E-2,-2.1898465E-2,5.9362907E-2],"split_indices":[9,7,11,7,41,0,20,22,4,8,0,4,4,0,0,0,0,0,0,0,0,0,0,0,0],"split_type":[0,0,0,0,0,0,0,0,0,0,0,0,0,0,0,0,0,0,0,0,0,0,0,0,0],"sum_hessian":[1.5302445E3,1.444326E3,8.591854E1,1.302956E3,1.4136993E2,2.8065882E0,8.311195E1,1.2246495E3,7.83065E1,1.2299894E2,1.8370996E1,5.1188187E1,3.1923763E1,3.2951578E2,8.951338E2,3.6246836E0,7.4681816E1,6.51336E1,5.7865345E1,4.0254517E0,1.4345545E1,3.9361248E1,1.18269415E1,3.3503814E0,2.8573381E1],"tree_param":{"num_deleted":"0","num_feature":"48","num_nodes":"25","size_leaf_vector":"1"}},{"base_weights":[2.1881238E-2,3.3608493E-1,-6.1288846E-1,5.656226E-1,1.3209347E-1,-6.8157864E-1,2.4650538E-1,-4.5178938E-1,5.9433067E-1,1.896292E-1,-4.3196052E-1,-4.925733E-1,-8.7709826E-1,8.77363E-2,8.076317E-2,-4.686164E-2,5.1471826E-2,-5.1157265E-3,3.1329334E-2,1.0868628E-2,-7.563423E-2,-4.5099106E-2,1.9293766E-2,-1.6812986E-2,-4.3147426E-2,-4.6866983E-2,2.0464396E-2,3.3974458E-2,-2.9687066E-2],"categories":[],"categories_nodes":[],"categories_segments":[],"categories_sizes":[],"default_left":[0,0,0,0,0,0,0,0,0,0,0,0,0,0,0,0,0,0,0,0,0,0,0,0,0,0,0,0,0],"id":19,"left_children":[1,3,5,7,9,11,13,15,17,19,21,23,25,27,-1,-1,-1,-1,-1,-1,-1,-1,-1,-1,-1,-1,-1,-1,-1],"loss_changes":[3.0415195E2,4.7686157E1,2.997496E1,1.4278061E1,1.7650951E1,1.6856049E1,8.1392765E0,1.0838007E1,1.0556229E1,2.356256E1,1.9727594E1,1.361356E1,1.810402E1,1.4599412E1,0E0,0E0,0E0,0E0,0E0,0E0,0E0,0E0,0E0,0E0,0E0,0E0,0E0,0E0,0E0],"parents":[2147483647,0,0,1,1,2,2,3,3,4,4,5,5,6,6,7,7,8,8,9,9,10,10,11,11,12,12,13,13],"right_children":[2,4,6,8,10,12,14,16,18,20,22,24,26,28,-1,-1,-1,-1,-1,-1,-1,-1,-1,-1,-1,-1,-1,-1,-1],"split_conditions":[6.73E2,6.06E2,1E0,1.062E1,2.302E1,7.2E2,8.21E2,3.461E1,2.94E1,5.91E-1,4.3E1,7E0,9.59E1,8.597662E4,8.076317E-2,-4.686164E-2,5.1471826E-2,-5.1157265E-3,3.1329334E-2,1.0868628E-2,-7.563423E-2,-4.5099106E-2,1.9293766E-2,-1.6812986E-2,-4.3147426E-2,-4.6866983E-2,2.0464396E-2,3.3974458E-2,-2.9687066E-2],"split_indices":[1,1,9,21,21,1,1,18,19,14,8,0,16,17,0,0,0,0,0,0,0,0,0,0,0,0,0,0,0],"split_type":[0,0,0,0,0,0,0,0,0,0,0,0,0,0,0,0,0,0,0,0,0,0,0,0,0,0,0,0,0],"sum_hessian":[1.5229436E3,1.0190139E3,5.0392963E2,4.7864948E2,5.4036444E2,4.6682394E2,3.710569E1,1.2730847E1,4.6591864E2,4.909495E2,4.9414974E1,2.391557E2,2.2766824E2,3.4202473E1,2.9032166E0,9.86503E0,2.8658164E0,2.0522146E1,4.4539648E2,4.839349E2,7.014592E0,3.1314949E1,1.8100023E1,1.6951942E2,6.963628E1,2.1774269E2,9.925546E0,1.8307924E1,1.5894548E1],"tree_param":{"num_deleted":"0","num_feature":"48","num_nodes":"29","size_leaf_vector":"1"}},{"base_weights":[-1.2654757E-4,3.854794E-1,-4.9986374E-1,5.894523E-1,1.9797449E-1,-3.1335327E-1,-8.216265E-1,8.399631E-2,6.404998E-1,7.3159575E-1,1.3799487E-1,-4.580663E-1,2.618206E-1,-1.9379944E-1,-9.3824416E-1,-2.1304032E-2,4.976883E-2,4.3671947E-2,2.726764E-2,5.2960407E-2,-5.3591244E-3,-5.4555085E-2,8.740012E-3,-1.8430619E-2,-6.4516015E-2,2.0517103E-2,-5.2737724E-2,-5.121482E-2,2.0857235E-2,-4.835151E-2,2.038779E-2],"categories":[],"categories_nodes":[],"categories_segments":[],"categories_sizes":[],"default_left":[0,0,0,0,0,0,0,0,0,0,0,0,0,0,0,0,0,0,0,0,0,0,0,0,0,0,0,0,0,0,0],"id":20,"left_children":[1,3,5,7,9,11,13,15,17,19,21,23,25,27,29,-1,-1,-1,-1,-1,-1,-1,-1,-1,-1,-1,-1,-1,-1,-1,-1],"loss_changes":[2.9118887E2,3.250486E1,3.9239197E1,1.0474167E1,1.4171234E1,3.4933495E1,1.7455048E1,1.8358315E1,7.7340393E0,1.2431072E1,1.8380306E1,2.4430397E1,1.6997921E1,2.0213228E1,8.255646E0,0E0,0E0,0E0,0E0,0E0,0E0,0E0,0E0,0E0,0E0,0E0,0E0,0E0,0E0,0E0,0E0],"parents":[2147483647,0,0,1,1,2,2,3,3,4,4,5,5,6,6,7,7,8,8,9,9,10,10,11,11,12,12,13,13,14,14],"right_children":[2,4,6,8,10,12,14,16,18,20,22,24,26,28,30,-1,-1,-1,-1,-1,-1,-1,-1,-1,-1,-1,-1,-1,-1,-1,-1],"split_conditions":[6.52E2,5.95E2,7.2E2,1.261E1,5.36E1,1E0,1.378E1,5E1,5.3E2,2.0576412E5,5.74E1,1E0,1E0,1.218E1,3E0,-2.1304032E-2,4.976883E-2,4.3671947E-2,2.726764E-2,5.2960407E-2,-5.3591244E-3,-5.4555085E-2,8.740012E-3,-1.8430619E-2,-6.4516015E-2,2.0517103E-2,-5.2737724E-2,-5.121482E-2,2.0857235E-2,-4.835151E-2,2.038779E-2],"split_indices":[1,1,1,21,16,6,21,8,1,11,16,29,37,21,5,0,0,0,0,0,0,0,0,0,0,0,0,0,0,0,0],"split_type":[0,0,0,0,0,0,0,0,0,0,0,0,0,0,0,0,0,0,0,0,0,0,0,0,0,0,0,0,0,0,0],"sum_hessian":[1.5090867E3,8.51942E2,6.5714465E2,4.070252E2,4.449168E2,4.1725546E2,2.398892E2,3.757863E1,3.6944656E2,4.3824604E1,4.010922E2,3.3354065E2,8.371483E1,3.7995754E1,2.0189345E2,2.4435291E1,1.3143337E1,1.0476951E2,2.6467706E2,3.132629E1,1.2498314E1,1.0828682E1,3.9026352E2,3.024726E2,3.1068045E1,7.584694E1,7.8678875E0,1.5817455E1,2.2178299E1,1.9794174E2,3.9517078E0],"tree_param":{"num_deleted":"0","num_feature":"48","num_nodes":"31","size_leaf_vector":"1"}},{"base_weights":[4.370995E-3,-7.0263594E-2,3.6922333E-1,-2.8345862E-1,1.9225493E-2,-7.3217005E-2,4.1910708E-1,-7.739014E-1,-1.8524393E-1,-7.8856725E-1,4.4076923E-2,-6.9230154E-2,4.5749152E-1,-4.5602266E-2,1.0081499E-2,-1.3287048E-2,1.7689774E-2,-5.366577E-2,1.9976852E-2,3.5061147E-2,7.562558E-4,2.5585247E-2,-3.2281023E-2],"categories":[],"categories_nodes":[],"categories_segments":[],"categories_sizes":[],"default_left":[0,0,0,0,0,0,0,0,0,0,0,0,0,0,0,0,0,0,0,0,0,0,0],"id":21,"left_children":[1,3,5,7,9,-1,11,13,15,17,19,-1,21,-1,-1,-1,-1,-1,-1,-1,-1,-1,-1],"loss_changes":[4.0562782E1,2.3599697E1,2.3751228E1,1.7471512E1,1.7539848E1,0E0,1.7737328E1,8.363945E0,1.3371348E1,9.25156E0,1.6102415E1,0E0,1.4841499E1,0E0,0E0,0E0,0E0,0E0,0E0,0E0,0E0,0E0,0E0],"parents":[2147483647,0,0,1,1,2,2,3,3,4,4,6,6,7,7,8,8,9,9,10,10,12,12],"right_children":[2,4,6,8,10,-1,12,14,16,18,20,-1,22,-1,-1,-1,-1,-1,-1,-1,-1,-1,-1],"split_conditions":[1E0,8E-1,5.1E-2,1E0,2.76389E3,-7.3217005E-2,2.43E1,1E0,3.2259172E5,2.965633E5,1.71E0,-6.9230154E-2,8.32E1,-4.5602266E-2,1.0081499E-2,-1.3287048E-2,1.7689774E-2,-5.366577E-2,1.9976852E-2,3.5061147E-2,7.562558E-4,2.5585247E-2,-3.2281023E-2],"split_indices":[6,18,7,46,10,0,19,32,17,17,18,0,19,0,0,0,0,0,0,0,0,0,0],"split_type":[0,0,0,0,0,0,0,0,0,0,0,0,0,0,0,0,0,0,0,0,0,0,0],"sum_hessian":[1.4876501E3,1.2356846E3,2.5196558E2,3.6469147E2,8.709931E2,5.922405E0,2.4604317E2,5.9699184E1,3.0499228E2,2.5078789E1,8.459143E2,4.396088E0,2.4164708E2,5.235091E1,7.348273E0,2.6580545E2,3.9186832E1,2.0308216E1,4.770573E0,3.4715862E1,8.111984E2,2.3083846E2,1.080863E1],"tree_param":{"num_deleted":"0","num_feature":"48","num_nodes":"23","size_leaf_vector":"1"}},{"base_weights":[-3.1843152E-2,3.8892674E-1,-4.425056E-1,4.3468142E-1,-7.8798E-2,-2.1142748E-1,-7.659201E-1,5.179734E-1,2.334777E-1,-4.165257E-1,6.089708E-1,-3.3958486E-1,4.0039477E-1,-1.0475165E0,-5.528345E-1,2.3880767E-2,5.3468782E-2,2.0766716E-2,-1.0325132E-2,-9.594189E-4,-6.638496E-2,-1.7073236E-2,5.0599087E-2,-4.246537E-2,-1.0869191E-2,7.561465E-2,7.1402276E-3,3.612287E-2,-5.596859E-2,-3.0858671E-2,3.1416643E-2],"categories":[],"categories_nodes":[],"categories_segments":[],"categories_sizes":[],"default_left":[0,0,0,0,0,0,0,0,0,0,0,0,0,0,0,0,0,0,0,0,0,0,0,0,0,0,0,0,0,0,0],"id":22,"left_children":[1,3,5,7,9,11,13,15,17,19,21,23,25,27,29,-1,-1,-1,-1,-1,-1,-1,-1,-1,-1,-1,-1,-1,-1,-1,-1],"loss_changes":[2.5634415E2,1.5716248E1,5.594397E1,1.1067841E1,1.5617197E1,3.4578167E1,1.8171066E1,9.978554E0,1.5871302E1,1.6249718E1,8.84475E0,2.2471355E1,2.1704628E1,1.7785522E1,1.4066654E1,0E0,0E0,0E0,0E0,0E0,0E0,0E0,0E0,0E0,0E0,0E0,0E0,0E0,0E0,0E0,0E0],"parents":[2147483647,0,0,1,1,2,2,3,3,4,4,5,5,6,6,7,7,8,8,9,9,10,10,11,11,12,12,13,13,14,14],"right_children":[2,4,6,8,10,12,14,16,18,20,22,24,26,28,30,-1,-1,-1,-1,-1,-1,-1,-1,-1,-1,-1,-1,-1,-1,-1,-1],"split_conditions":[6.38E2,5.03E-1,6.99E2,6.11E2,3.074385E5,7.012817E4,1E0,4.63E-1,3E0,2.75E-1,4.12E0,1.27E-1,1E0,3.4E-2,5.38E-1,2.3880767E-2,5.3468782E-2,2.0766716E-2,-1.0325132E-2,-9.594189E-4,-6.638496E-2,-1.7073236E-2,5.0599087E-2,-4.246537E-2,-1.0869191E-2,7.561465E-2,7.1402276E-3,3.612287E-2,-5.596859E-2,-3.0858671E-2,3.1416643E-2],"split_indices":[1,7,1,1,12,10,13,7,2,14,18,14,2,14,14,0,0,0,0,0,0,0,0,0,0,0,0,0,0,0,0],"split_type":[0,0,0,0,0,0,0,0,0,0,0,0,0,0,0,0,0,0,0,0,0,0,0,0,0,0,0,0,0,0,0],"sum_hessian":[1.481525E3,7.317835E2,7.497416E2,6.6664075E2,6.514275E1,4.3826038E2,3.1148123E2,4.703544E2,1.9628633E2,4.395373E1,2.1189022E1,3.627258E2,7.553459E1,1.3248459E2,1.7899663E2,4.400151E2,3.0339293E1,1.389219E2,5.736443E1,3.131792E1,1.2635811E1,6.3548536E0,1.4834168E1,6.899309E1,2.937327E2,1.329129E1,6.22433E1,4.815382E0,1.276692E2,1.7020305E2,8.793585E0],"tree_param":{"num_deleted":"0","num_feature":"48","num_nodes":"31","size_leaf_vector":"1"}},{"base_weights":[1.0430089E-3,2.6027054E-1,-5.4635364E-1,4.9036932E-1,2.474055E-2,-6.1885434E-1,2.8246078E-1,-3.414922E-1,5.1450866E-1,-2.6284847E-1,1.4385344E-1,-3.442175E-1,-7.559147E-1,-3.0390066E-1,6.3064986E-1,2.5524525E-2,-6.213386E-2,4.4590883E-2,2.2914937E-2,4.607914E-2,-1.8530615E-2,1.1560339E-2,-2.533932E-2,-5.2381244E-2,-7.432534E-3,-3.982329E-2,1.221223E-2,-5.1117968E-2,4.9231347E-2,-2.8354073E-2,4.4652507E-2],"categories":[],"categories_nodes":[],"categories_segments":[],"categories_sizes":[],"default_left":[0,0,0,0,0,0,0,0,0,0,0,0,0,0,0,0,0,0,0,0,0,0,0,0,0,0,0,0,0,0,0],"id":23,"left_children":[1,3,5,7,9,11,13,15,17,19,21,23,25,27,29,-1,-1,-1,-1,-1,-1,-1,-1,-1,-1,-1,-1,-1,-1,-1,-1],"loss_changes":[2.1212138E2,5.4966187E1,2.904245E1,1.0478828E1,1.7246504E1,1.6380478E1,8.221489E0,1.2205211E1,1.0174728E1,1.9166119E1,2.0343756E1,2.0342707E1,1.2121231E1,1.5196799E1,8.36418E0,0E0,0E0,0E0,0E0,0E0,0E0,0E0,0E0,0E0,0E0,0E0,0E0,0E0,0E0,0E0,0E0],"parents":[2147483647,0,0,1,1,2,2,3,3,4,4,5,5,6,6,7,7,8,8,9,9,10,10,11,11,12,12,13,13,14,14],"right_children":[2,4,6,8,10,12,14,16,18,20,22,24,26,28,30,-1,-1,-1,-1,-1,-1,-1,-1,-1,-1,-1,-1,-1,-1,-1,-1],"split_conditions":[6.73E2,6.1E2,1E0,1.062E1,8E-1,6.99E2,7.27E1,1.338051E4,5.09E2,1.219997E5,2.228E1,1.64E-1,9.59E1,1.628E1,1.48E-1,2.5524525E-2,-6.213386E-2,4.4590883E-2,2.2914937E-2,4.607914E-2,-1.8530615E-2,1.1560339E-2,-2.533932E-2,-5.2381244E-2,-7.432534E-3,-3.982329E-2,1.221223E-2,-5.1117968E-2,4.9231347E-2,-2.8354073E-2,4.4652507E-2],"split_indices":[1,1,9,21,18,1,16,10,1,20,21,7,16,18,7,0,0,0,0,0,0,0,0,0,0,0,0,0,0,0,0],"split_type":[0,0,0,0,0,0,0,0,0,0,0,0,0,0,0,0,0,0,0,0,0,0,0,0,0,0,0,0,0,0,0],"sum_hessian":[1.4928602E3,1.0134507E3,4.7940958E2,5.120886E2,5.0136206E2,4.4107938E2,3.833019E1,1.4070234E1,4.9801837E2,1.4648308E2,3.5487897E2,1.4801111E2,2.9306827E2,1.4328216E1,2.4001974E1,7.455407E0,6.6148276E0,6.2645416E1,4.3537296E2,1.1586298E1,1.3489677E2,3.1344168E2,4.1437283E1,3.1251183E1,1.16759926E2,2.8184464E2,1.1223634E1,9.331637E0,4.996578E0,4.1047277E0,1.9897245E1],"tree_param":{"num_deleted":"0","num_feature":"48","num_nodes":"31","size_leaf_vector":"1"}},{"base_weights":[1.5972862E-2,2.762585E-1,-5.610331E-1,4.9075168E-1,6.309963E-2,-6.68654E-1,-7.279239E-2,6.049082E-1,2.701913E-1,8.386639E-2,-7.3281266E-2,-7.2846556E-1,5.5133983E-2,2.838698E-1,-5.4679877E-1,-9.264712E-3,3.1975083E-2,-4.650518E-2,1.7807355E-2,-4.642147E-3,1.2073297E-2,-1.2904346E-2,-4.0792342E-2,-2.5578901E-2,3.2324377E-2,3.3763174E-2,-3.43144E-2,3.5399828E-2,-4.1088432E-2],"categories":[],"categories_nodes":[],"categories_segments":[],"categories_sizes":[],"default_left":[0,0,0,0,0,0,0,0,0,0,0,0,0,0,0,0,0,0,0,0,0,0,0,0,0,0,0,0,0],"id":24,"left_children":[1,3,5,7,9,11,13,15,17,19,-1,21,23,25,27,-1,-1,-1,-1,-1,-1,-1,-1,-1,-1,-1,-1,-1,-1],"loss_changes":[2.237354E2,4.6905174E1,2.4285522E1,1.271627E1,1.6505344E1,1.6462357E1,1.4485884E1,9.310692E0,1.851736E1,1.4227407E1,0E0,1.4194183E1,1.0345939E1,1.9080353E1,1.3257485E1,0E0,0E0,0E0,0E0,0E0,0E0,0E0,0E0,0E0,0E0,0E0,0E0,0E0,0E0],"parents":[2147483647,0,0,1,1,2,2,3,3,4,4,5,5,6,6,7,7,8,8,9,9,11,11,12,12,13,13,14,14],"right_children":[2,4,6,8,10,12,14,16,18,20,-1,22,24,26,28,-1,-1,-1,-1,-1,-1,-1,-1,-1,-1,-1,-1,-1,-1],"split_conditions":[6.74E2,6.1E2,1E0,2.1179162E5,3E0,1E0,2E0,2.78E1,2.3263127E5,8.41E0,-7.3281266E-2,1E0,6.02E1,2.3701445E5,7E0,-9.264712E-3,3.1975083E-2,-4.650518E-2,1.7807355E-2,-4.642147E-3,1.2073297E-2,-1.2904346E-2,-4.0792342E-2,-2.5578901E-2,3.2324377E-2,3.3763174E-2,-3.43144E-2,3.5399828E-2,-4.1088432E-2],"split_indices":[1,1,6,11,5,9,15,19,11,18,0,0,19,11,8,0,0,0,0,0,0,0,0,0,0,0,0,0,0],"split_type":[0,0,0,0,0,0,0,0,0,0,0,0,0,0,0,0,0,0,0,0,0,0,0,0,0,0,0,0,0],"sum_hessian":[1.4876865E3,1.0255743E3,4.621122E2,5.105381E2,5.150362E2,3.7834555E2,8.3766655E1,3.352688E2,1.752693E2,5.09066E2,5.970199E0,3.4946075E2,2.8884804E1,4.8028862E1,3.5737793E1,1.3879072E1,3.213897E2,1.1056368E1,1.6421292E2,2.401771E2,2.6888892E2,5.5367535E1,2.9409323E2,1.4818597E1,1.4066208E1,3.4439E1,1.3589865E1,6.140675E0,2.959712E1],"tree_param":{"num_deleted":"0","num_feature":"48","num_nodes":"29","size_leaf_vector":"1"}},{"base_weights":[-5.778883E-3,2.3851825E-1,-5.3431165E-1,4.66865E-1,9.617011E-2,-6.4153403E-1,-5.7829246E-2,5.318256E-1,1.548878E-1,5.6219954E-2,6.96149E-1,-3.0002581E-2,-7.119196E-1,3.224386E-1,-5.211054E-1,2.8092721E-2,-1.2112781E-2,-5.526319E-2,1.8846054E-2,1.7913623E-2,-1.1323132E-3,-6.44237E-2,4.3331448E-2,-4.1195285E-2,6.502656E-2,-3.8503762E-2,1.000917E-3,2.4286686E-2,-5.6861497E-2,-3.9135255E-2,4.567315E-2],"categories":[],"categories_nodes":[],"categories_segments":[],"categories_sizes":[],"default_left":[0,0,0,0,0,0,0,0,0,0,0,0,0,0,0,0,0,0,0,0,0,0,0,0,0,0,0,0,0,0,0],"id":25,"left_children":[1,3,5,7,9,11,13,15,17,19,21,23,25,27,29,-1,-1,-1,-1,-1,-1,-1,-1,-1,-1,-1,-1,-1,-1,-1,-1],"loss_changes":[1.8965416E2,3.260741E1,2.3684052E1,7.7300034E0,1.4823053E1,1.6288345E1,1.5387015E1,7.542862E0,1.9399303E1,1.3882633E1,1.4183743E1,4.3487537E1,1.4477814E1,1.2008422E1,1.5473343E1,0E0,0E0,0E0,0E0,0E0,0E0,0E0,0E0,0E0,0E0,0E0,0E0,0E0,0E0,0E0,0E0],"parents":[2147483647,0,0,1,1,2,2,3,3,4,4,5,5,6,6,7,7,8,8,9,9,10,10,11,11,12,12,13,13,14,14],"right_children":[2,4,6,8,10,12,14,16,18,20,22,24,26,28,30,-1,-1,-1,-1,-1,-1,-1,-1,-1,-1,-1,-1,-1,-1,-1,-1],"split_conditions":[6.73E2,5.94E2,1E0,4.8E1,1E0,1.297E1,2E0,4E0,6.7575E4,2.2466395E5,1.8105089E5,1.218E1,1E0,2.7284722E5,4.39E-1,2.8092721E-2,-1.2112781E-2,-5.526319E-2,1.8846054E-2,1.7913623E-2,-1.1323132E-3,-6.44237E-2,4.3331448E-2,-4.1195285E-2,6.502656E-2,-3.8503762E-2,1.000917E-3,2.4286686E-2,-5.6861497E-2,-3.9135255E-2,4.567315E-2],"split_indices":[1,1,6,22,9,21,15,15,4,20,20,21,9,17,14,0,0,0,0,0,0,0,0,0,0,0,0,0,0,0,0],"split_type":[0,0,0,0,0,0,0,0,0,0,0,0,0,0,0,0,0,0,0,0,0,0,0,0,0,0,0,0,0,0,0],"sum_hessian":[1.4668448E3,1.00353986E3,4.6330505E2,3.844874E2,6.190524E2,3.7791647E2,8.5388565E1,3.176425E2,6.684491E1,5.81431E2,3.7621426E1,3.9154713E1,3.3876178E2,4.7062542E1,3.8326023E1,3.0604434E2,1.1598163E1,9.417559E0,5.7427353E1,1.196472E2,4.617838E2,2.4572864E0,3.516414E1,2.4761055E1,1.439366E1,3.1377863E2,2.4983139E1,4.292742E1,4.1351194E0,3.2799324E1,5.5266986E0],"tree_param":{"num_deleted":"0","num_feature":"48","num_nodes":"31","size_leaf_vector":"1"}},{"base_weights":[-7.578552E-3,2.0401968E-1,-6.2951905E-1,3.6396226E-1,-4.954992E-2,-3.9339167E-1,-7.984465E-1,3.9986822E-1,-1.0065069E-1,1.3380061E-3,-7.55003E-1,-1.7348129E-1,-9.193875E-1,-3.180113E-1,-9.2865837E-1,2.1174056E-2,-1.5570349E-2,2.0295832E-2,-2.8548596E-2,7.624255E-3,-1.5025802E-2,-2.9892165E-3,-7.200875E-2,-1.6332444E-2,4.1850887E-2,6.608975E-3,-6.471929E-2,-2.9674444E-2,5.0365973E-2,-5.77051E-2,-3.391379E-2],"categories":[],"categories_nodes":[],"categories_segments":[],"categories_sizes":[],"default_left":[0,0,0,0,0,0,0,0,0,0,0,0,0,0,0,0,0,0,0,0,0,0,0,0,0,0,0,0,0,0,0],"id":26,"left_children":[1,3,5,7,9,11,13,15,17,19,21,23,25,27,29,-1,-1,-1,-1,-1,-1,-1,-1,-1,-1,-1,-1,-1,-1,-1,-1],"loss_changes":[1.9137747E2,4.4025375E1,1.4411026E1,1.1142441E1,1.5099459E1,1.7876999E1,1.3106567E1,1.0510735E1,1.1796507E1,1.7989048E1,1.3394051E1,1.7482826E1,1.8207458E1,1.783137E1,8.701904E0,0E0,0E0,0E0,0E0,0E0,0E0,0E0,0E0,0E0,0E0,0E0,0E0,0E0,0E0,0E0,0E0],"parents":[2147483647,0,0,1,1,2,2,3,3,4,4,5,5,6,6,7,7,8,8,9,9,10,10,11,11,12,12,13,13,14,14],"right_children":[2,4,6,8,10,12,14,16,18,20,22,24,26,28,30,-1,-1,-1,-1,-1,-1,-1,-1,-1,-1,-1,-1,-1,-1,-1,-1],"split_conditions":[6.86E2,6.3E2,7.2E2,6E1,8.18E1,8.32E1,1E0,5.96E-1,2.56E-1,2.8E-1,7.66E1,4.35E-1,1.3E0,7.5E1,1.4480656E5,2.1174056E-2,-1.5570349E-2,2.0295832E-2,-2.8548596E-2,7.624255E-3,-1.5025802E-2,-2.9892165E-3,-7.200875E-2,-1.6332444E-2,4.1850887E-2,6.608975E-3,-6.471929E-2,-2.9674444E-2,5.0365973E-2,-5.77051E-2,-3.391379E-2],"split_indices":[1,1,1,22,19,16,3,7,7,14,16,14,0,19,12,0,0,0,0,0,0,0,0,0,0,0,0,0,0,0,0],"split_type":[0,0,0,0,0,0,0,0,0,0,0,0,0,0,0,0,0,0,0,0,0,0,0,0,0,0,0,0,0,0,0],"sum_hessian":[1.4522434E3,1.0840851E3,3.681583E2,6.645043E2,4.195808E2,1.5492802E2,2.1323027E2,6.169638E2,4.754048E1,3.9228165E2,2.729917E1,1.1018942E2,4.4738605E1,4.6202374E1,1.6702791E2,5.975316E2,1.9432222E1,2.2954206E1,2.4586275E1,2.617238E2,1.3055786E2,1.4089913E1,1.3209257E1,9.6273415E1,1.3916009E1,1.1930556E1,3.280805E1,3.8708736E1,7.493637E0,8.5991806E1,8.1036095E1],"tree_param":{"num_deleted":"0","num_feature":"48","num_nodes":"31","size_leaf_vector":"1"}},{"base_weights":[1.3638943E-2,-1.9935451E-2,5.505266E-1,-4.9182672E-2,4.3032575E-1,-8.810593E-1,6.518008E-1,-9.907267E-2,1.9911854E-1,6.534992E-1,-1.5803196E-1,-7.0161276E-2,3.5562035E-2,7.923558E-1,-2.7495524E-1,1.960519E-2,-6.6303113E-3,-7.525502E-2,1.272577E-2,5.052162E-2,4.4584796E-3,-2.8957251E-2,5.4787286E-2,-4.6654288E-2,4.1832656E-2,-7.705521E-2,3.0915499E-2],"categories":[],"categories_nodes":[],"categories_segments":[],"categories_sizes":[],"default_left":[0,0,0,0,0,0,0,0,0,0,0,0,0,0,0,0,0,0,0,0,0,0,0,0,0,0,0],"id":27,"left_children":[1,3,5,7,9,11,13,15,17,19,21,-1,-1,23,25,-1,-1,-1,-1,-1,-1,-1,-1,-1,-1,-1,-1],"loss_changes":[2.6727966E1,1.8403553E1,1.3226511E1,1.6268131E1,1.1296315E1,6.145387E0,1.0909142E1,1.8052511E1,2.113242E1,1.2397707E1,1.34369135E1,0E0,0E0,6.247532E0,1.4017231E1,0E0,0E0,0E0,0E0,0E0,0E0,0E0,0E0,0E0,0E0,0E0,0E0],"parents":[2147483647,0,0,1,1,2,2,3,3,4,4,5,5,6,6,7,7,8,8,9,9,10,10,13,13,14,14],"right_children":[2,4,6,8,10,12,14,16,18,20,22,-1,-1,24,26,-1,-1,-1,-1,-1,-1,-1,-1,-1,-1,-1,-1],"split_conditions":[3E0,1E0,9.1E-2,1E0,8.32E1,8.65E1,8.97E1,1.219997E5,2.56E1,1.0568626E5,1E0,-7.0161276E-2,3.5562035E-2,1.062E1,1.5327812E5,1.960519E-2,-6.6303113E-3,-7.525502E-2,1.272577E-2,5.052162E-2,4.4584796E-3,-2.8957251E-2,5.4787286E-2,-4.6654288E-2,4.1832656E-2,-7.705521E-2,3.0915499E-2],"split_indices":[13,9,14,6,16,16,16,20,19,17,33,0,0,21,11,0,0,0,0,0,0,0,0,0,0,0,0],"split_type":[0,0,0,0,0,0,0,0,0,0,0,0,0,0,0,0,0,0,0,0,0,0,0,0,0,0,0],"sum_hessian":[1.4811627E3,1.3948954E3,8.6267235E1,1.3106514E3,8.424406E1,5.1908565E0,8.107638E1,1.0918684E3,2.18783E2,6.0996418E1,2.3247635E1,3.9983974E0,1.1924593E0,7.05253E1,1.0551082E1,6.909655E1,1.02277185E3,6.0639277E0,2.1271907E2,3.68798E1,2.4116623E1,1.780534E1,5.4422956E0,1.263066E0,6.926223E1,4.0645633E0,6.4865184E0],"tree_param":{"num_deleted":"0","num_feature":"48","num_nodes":"27","size_leaf_vector":"1"}},{"base_weights":[-2.5313362E-2,2.1675596E-1,-5.6510115E-1,1.5549375E-1,5.2488935E-1,-6.3737583E-1,2.3993033E-1,2.1560358E-1,-2.532452E-1,-3.6991158E-1,6.246428E-1,-4.3484515E-1,-8.604933E-1,-3.8845867E-1,5.820117E-1,3.3745978E-2,8.9481585E-3,2.6639044E-2,-3.1471115E-2,2.921774E-2,-6.6382974E-2,3.2412514E-2,-6.170855E-2,-1.2964524E-2,-3.9161574E-2,-1.8942924E-2,-5.0393034E-2,-5.2189182E-2,8.1232995E-2,-6.020056E-3,6.2298335E-2],"categories":[],"categories_nodes":[],"categories_segments":[],"categories_sizes":[],"default_left":[0,0,0,0,0,0,0,0,0,0,0,0,0,0,0,0,0,0,0,0,0,0,0,0,0,0,0,0,0,0,0],"id":28,"left_children":[1,3,5,7,9,11,13,15,17,19,21,23,25,27,29,-1,-1,-1,-1,-1,-1,-1,-1,-1,-1,-1,-1,-1,-1,-1,-1],"loss_changes":[1.8895357E2,1.8765823E1,2.6201935E1,2.0552048E1,1.4973549E1,1.8202469E1,8.310648E0,1.2128635E1,3.2097755E1,1.649021E1,7.3371544E0,1.3100063E1,1.3429245E1,1.9976244E1,1.1694017E1,0E0,0E0,0E0,0E0,0E0,0E0,0E0,0E0,0E0,0E0,0E0,0E0,0E0,0E0,0E0,0E0],"parents":[2147483647,0,0,1,1,2,2,3,3,4,4,5,5,6,6,7,7,8,8,9,9,10,10,11,11,12,12,13,13,14,14],"right_children":[2,4,6,8,10,12,14,16,18,20,22,24,26,28,30,-1,-1,-1,-1,-1,-1,-1,-1,-1,-1,-1,-1,-1,-1,-1,-1],"split_conditions":[6.73E2,1E0,1E0,6.56E2,9.9E-2,7.2E2,5.66E0,5.09E2,1.83E-1,7.44E1,1.89E2,8.19E1,1E1,5.09E-1,1E0,3.3745978E-2,8.9481585E-3,2.6639044E-2,-3.1471115E-2,2.921774E-2,-6.6382974E-2,3.2412514E-2,-6.170855E-2,-1.2964524E-2,-3.9161574E-2,-1.8942924E-2,-5.0393034E-2,-5.2189182E-2,8.1232995E-2,-6.020056E-3,6.2298335E-2],"split_indices":[1,6,9,1,7,1,18,1,7,16,8,16,8,14,5,0,0,0,0,0,0,0,0,0,0,0,0,0,0,0,0],"split_type":[0,0,0,0,0,0,0,0,0,0,0,0,0,0,0,0,0,0,0,0,0,0,0,0,0,0,0,0,0,0,0],"sum_hessian":[1.4441426E3,9.9743744E2,4.467051E2,8.332731E2,1.6416434E2,4.1009552E2,3.660958E1,7.2685333E2,1.0641975E2,1.6193985E1,1.4797035E2,2.1651083E2,1.9358469E2,1.2856732E1,2.375285E1,5.241171E1,6.7444165E2,3.4310753E1,7.210899E1,8.307024E0,7.8869615E0,1.4675775E2,1.2126119E0,1.451253E2,7.138554E1,4.619107E1,1.4739362E2,1.00625925E1,2.794139E0,1.19399605E1,1.1812888E1],"tree_param":{"num_deleted":"0","num_feature":"48","num_nodes":"31","size_leaf_vector":"1"}},{"base_weights":[1.35897705E-2,2.693629E-1,-3.7395E-1,4.5154282E-1,1.2584491E-1,-5.011321E-1,1.3136046E-1,5.010568E-1,-2.3099709E-1,-7.1974105E-1,1.576478E-1,-5.561895E-1,4.01986E-1,3.6627698E-1,-5.610732E-1,-1.292141E-2,2.6858723E-2,-5.0899155E-2,2.4125014E-2,-6.6515096E-2,2.5529444E-2,1.8045403E-3,1.7038502E-2,-1.1274468E-2,-3.151342E-2,5.5047806E-2,-2.6993845E-2,2.7354006E-2,-1.7294208E-2,2.0710101E-2,-4.6595823E-2],"categories":[],"categories_nodes":[],"categories_segments":[],"categories_sizes":[],"default_left":[0,0,0,0,0,0,0,0,0,0,0,0,0,0,0,0,0,0,0,0,0,0,0,0,0,0,0,0,0,0,0],"id":29,"left_children":[1,3,5,7,9,11,13,15,17,19,21,23,25,27,29,-1,-1,-1,-1,-1,-1,-1,-1,-1,-1,-1,-1,-1,-1,-1,-1],"loss_changes":[1.4380013E2,2.2792515E1,3.7135246E1,1.3116783E1,1.329623E1,2.3147583E1,1.9201002E1,9.986366E0,1.5486051E1,1.4161933E1,1.0522405E1,1.0513489E1,1.8416548E1,1.1494482E1,1.1227928E1,0E0,0E0,0E0,0E0,0E0,0E0,0E0,0E0,0E0,0E0,0E0,0E0,0E0,0E0,0E0,0E0],"parents":[2147483647,0,0,1,1,2,2,3,3,4,4,5,5,6,6,7,7,8,8,9,9,10,10,11,11,12,12,13,13,14,14],"right_children":[2,4,6,8,10,12,14,16,18,20,22,24,26,28,30,-1,-1,-1,-1,-1,-1,-1,-1,-1,-1,-1,-1,-1,-1,-1,-1],"split_conditions":[6.56E2,5.93E2,1E0,5.4E-1,2.128346E4,1.6435011E6,7.31E2,5.5E-2,3.189959E4,3.44E-1,5.627619E5,3.95E1,6.98E2,1.7338984E5,1E0,-1.292141E-2,2.6858723E-2,-5.0899155E-2,2.4125014E-2,-6.6515096E-2,2.5529444E-2,1.8045403E-3,1.7038502E-2,-1.1274468E-2,-3.151342E-2,5.5047806E-2,-2.6993845E-2,2.7354006E-2,-1.7294208E-2,2.0710101E-2,-4.6595823E-2],"split_indices":[1,1,6,7,4,20,1,14,10,14,20,19,1,17,3,0,0,0,0,0,0,0,0,0,0,0,0,0,0,0,0],"split_type":[0,0,0,0,0,0,0,0,0,0,0,0,0,0,0,0,0,0,0,0,0,0,0,0,0,0,0,0,0,0,0],"sum_hessian":[1.4487186E3,8.7291003E2,5.758086E2,3.8369992E2,4.8921008E2,4.6003122E2,1.15777405E2,3.5799548E2,2.570444E1,1.694842E1,4.7226166E2,4.339596E2,2.6071623E1,8.6800354E1,2.8977049E1,1.5972362E1,3.4202313E2,1.2019835E1,1.3684603E1,1.1272899E1,5.6755204E0,2.8456427E2,1.876974E2,8.0159386E1,3.538002E2,1.48685465E1,1.1203076E1,6.941031E1,1.7390049E1,7.9506993E0,2.1026348E1],"tree_param":{"num_deleted":"0","num_feature":"48","num_nodes":"31","size_leaf_vector":"1"}},{"base_weights":[-2.2527589E-2,1.8930626E-1,-5.052257E-1,4.1027075E-1,4.7794484E-2,-6.0922444E-1,-7.960898E-2,-2.7701938E-1,4.4297335E-1,9.214518E-2,-7.8036845E-1,-2.5760785E-1,-7.179917E-1,8.103937E-2,-1.1005595E0,-6.8739295E-2,1.0140954E-2,5.211572E-2,2.0168617E-2,8.314472E-3,-1.3763741E-2,-7.06073E-2,3.3090878E-3,-2.049043E-2,8.707915E-2,1.4873109E-3,-3.9097574E-2,1.1228988E-2,-5.8801718E-2,3.625345E-2,-6.7301095E-2],"categories":[],"categories_nodes":[],"categories_segments":[],"categories_sizes":[],"default_left":[0,0,0,0,0,0,0,0,0,0,0,0,0,0,0,0,0,0,0,0,0,0,0,0,0,0,0,0,0,0,0],"id":30,"left_children":[1,3,5,7,9,11,13,15,17,19,21,23,25,27,29,-1,-1,-1,-1,-1,-1,-1,-1,-1,-1,-1,-1,-1,-1,-1,-1],"loss_changes":[1.4798422E2,3.1434425E1,1.9489563E1,8.946411E0,2.2636177E1,1.337558E1,1.4494047E1,9.995546E0,8.48317E0,1.59552E1,1.6851236E1,2.6677574E1,1.2947845E1,1.4125147E1,6.3576517E0,0E0,0E0,0E0,0E0,0E0,0E0,0E0,0E0,0E0,0E0,0E0,0E0,0E0,0E0,0E0,0E0],"parents":[2147483647,0,0,1,1,2,2,3,3,4,4,5,5,6,6,7,7,8,8,9,9,10,10,11,11,12,12,13,13,14,14],"right_children":[2,4,6,8,10,12,14,16,18,20,22,24,26,28,30,-1,-1,-1,-1,-1,-1,-1,-1,-1,-1,-1,-1,-1,-1,-1,-1],"split_conditions":[6.73E2,5.93E2,1E0,5.5E-2,8.32E1,1E1,7.752125E4,5.59E1,8E-2,2.153E1,2.3263127E5,9.59E1,2.232949E4,2.7284722E5,5.4E-2,-6.8739295E-2,1.0140954E-2,5.211572E-2,2.0168617E-2,8.314472E-3,-1.3763741E-2,-7.06073E-2,3.3090878E-3,-2.049043E-2,8.707915E-2,1.4873109E-3,-3.9097574E-2,1.1228988E-2,-5.8801718E-2,3.625345E-2,-6.7301095E-2],"split_indices":[1,1,6,14,19,8,10,19,14,21,11,16,17,17,7,0,0,0,0,0,0,0,0,0,0,0,0,0,0,0,0],"split_type":[0,0,0,0,0,0,0,0,0,0,0,0,0,0,0,0,0,0,0,0,0,0,0,0,0,0,0,0,0,0,0],"sum_hessian":[1.4453176E3,1.00491486E3,4.4040274E2,3.9158017E2,6.1333466E2,3.5357574E2,8.6827E1,1.7446514E1,3.7413367E2,5.8300183E2,3.0332827E1,8.432929E1,2.6924646E2,7.58176E1,1.1009408E1,4.7391844E0,1.2707331E1,2.16191E1,3.5251456E2,4.855639E2,9.743792E1,1.6987211E1,1.3345615E1,7.910216E1,5.2271276E0,2.1258085E1,2.4798836E2,6.878469E1,7.0329103E0,1.0732458E0,9.936162E0],"tree_param":{"num_deleted":"0","num_feature":"48","num_nodes":"31","size_leaf_vector":"1"}},{"base_weights":[-2.1964181E-2,2.1472685E-1,-3.9628932E-1,3.4445444E-1,5.3374533E-2,-5.08237E-1,3.9827842E-2,4.728817E-1,1.7468797E-1,-8.595873E-3,5.135773E-1,-5.68174E-1,2.0040159E-1,3.90472E-1,-3.449572E-1,3.2232683E-2,1.2164628E-2,-3.1149164E-2,1.3549856E-2,5.7526943E-3,-1.5937159E-2,2.6639577E-4,5.2515753E-2,-3.8579483E-2,-2.106276E-2,2.2458406E-2,-4.047083E-2,4.428863E-2,-2.1868782E-2,-3.6391076E-2,1.8359546E-2],"categories":[],"categories_nodes":[],"categories_segments":[],"categories_sizes":[],"default_left":[0,0,0,0,0,0,0,0,0,0,0,0,0,0,0,0,0,0,0,0,0,0,0,0,0,0,0,0,0,0,0],"id":31,"left_children":[1,3,5,7,9,11,13,15,17,19,21,23,25,27,29,-1,-1,-1,-1,-1,-1,-1,-1,-1,-1,-1,-1,-1,-1,-1,-1],"loss_changes":[1.2673792E2,1.8326267E1,2.7072708E1,1.0505302E1,1.1177402E1,1.884446E1,1.5530427E1,1.0723347E1,1.6358257E1,1.3315723E1,1.2682555E1,1.183429E1,9.188507E0,2.505978E1,1.52459545E1,0E0,0E0,0E0,0E0,0E0,0E0,0E0,0E0,0E0,0E0,0E0,0E0,0E0,0E0,0E0,0E0],"parents":[2147483647,0,0,1,1,2,2,3,3,4,4,5,5,6,6,7,7,8,8,9,9,10,10,11,11,12,12,13,13,14,14],"right_children":[2,4,6,8,10,12,14,16,18,20,22,24,26,28,30,-1,-1,-1,-1,-1,-1,-1,-1,-1,-1,-1,-1,-1,-1,-1,-1],"split_conditions":[6.58E2,6.09E2,1E0,1.6703902E5,6.26486E5,1E0,6.97E2,1E0,-8.22E0,3.07E-1,2.2127797E5,1E0,2.024E1,4.645446E5,1.611E1,3.2232683E-2,1.2164628E-2,-3.1149164E-2,1.3549856E-2,5.7526943E-3,-1.5937159E-2,2.6639577E-4,5.2515753E-2,-3.8579483E-2,-2.106276E-2,2.2458406E-2,-4.047083E-2,4.428863E-2,-2.1868782E-2,-3.6391076E-2,1.8359546E-2],"split_indices":[1,1,6,11,11,9,1,44,18,14,4,13,21,20,18,0,0,0,0,0,0,0,0,0,0,0,0,0,0,0,0],"split_type":[0,0,0,0,0,0,0,0,0,0,0,0,0,0,0,0,0,0,0,0,0,0,0,0,0,0,0,0,0,0,0],"sum_hessian":[1.4284996E3,8.75399E2,5.5310065E2,4.8462485E2,3.9077414E2,4.3999283E2,1.1310786E2,2.7488815E2,2.097367E2,3.4526276E2,4.551139E1,4.058629E2,3.4129894E1,5.9171604E1,5.3936256E1,1.5620917E2,1.18679E2,2.2005945E1,1.8773074E2,2.472986E2,9.796416E1,2.3894789E1,2.1616602E1,1.684226E2,2.3744032E2,2.7829384E1,6.3005095E0,3.697783E1,2.2193775E1,3.5063465E1,1.8872791E1],"tree_param":{"num_deleted":"0","num_feature":"48","num_nodes":"31","size_leaf_vector":"1"}},{"base_weights":[-1.1600385E-2,2.8419867E-1,-3.4556285E-1,2.4164085E-1,6.4193267E-1,-1.5024118E-1,-6.1373603E-1,4.0760693E-1,1.3817734E-1,7.0822513E-1,-7.645467E-2,4.5481256E-1,-2.4030207E-1,-6.9158113E-1,1.7432018E-1,6.480037E-3,3.166116E-2,-6.136147E-2,7.926552E-3,5.416997E-2,2.0918554E-2,-5.8064815E-2,2.9726947E-2,1.8799664E-2,-1.6068693E-2,-3.712525E-2,3.8918655E-3,2.2753183E-2,-5.2966423E-2],"categories":[],"categories_nodes":[],"categories_segments":[],"categories_sizes":[],"default_left":[0,0,0,0,0,0,0,0,0,0,0,0,0,0,0,0,0,0,0,0,0,0,0,0,0,0,0,0,0],"id":32,"left_children":[1,3,5,7,9,11,13,15,17,19,-1,21,23,25,27,-1,-1,-1,-1,-1,-1,-1,-1,-1,-1,-1,-1,-1,-1],"loss_changes":[1.404696E2,1.1325401E1,3.4891365E1,1.1543308E1,1.2534676E1,2.1238565E1,1.7366692E1,1.6156395E1,1.1800833E1,8.017437E0,0E0,1.2112941E1,1.701714E1,1.0090485E1,9.511888E0,0E0,0E0,0E0,0E0,0E0,0E0,0E0,0E0,0E0,0E0,0E0,0E0,0E0,0E0],"parents":[2147483647,0,0,1,1,2,2,3,3,4,4,5,5,6,6,7,7,8,8,9,9,11,11,12,12,13,13,14,14],"right_children":[2,4,6,8,10,12,14,16,18,20,-1,22,24,26,28,-1,-1,-1,-1,-1,-1,-1,-1,-1,-1,-1,-1,-1,-1],"split_conditions":[6.41E2,1E0,6.97E2,9.337912E4,4.472017E5,1.6652098E5,1E0,1.801E1,4E-2,5.79E2,-7.645467E-2,3.7E1,3.33E1,3E0,1.7184161E5,6.480037E-3,3.166116E-2,-6.136147E-2,7.926552E-3,5.416997E-2,2.0918554E-2,-5.8064815E-2,2.9726947E-2,1.8799664E-2,-1.6068693E-2,-3.712525E-2,3.8918655E-3,2.2753183E-2,-5.2966423E-2],"split_indices":[1,41,1,12,17,20,9,21,7,1,0,19,19,13,17,0,0,0,0,0,0,0,0,0,0,0,0,0,0],"split_type":[0,0,0,0,0,0,0,0,0,0,0,0,0,0,0,0,0,0,0,0,0,0,0,0,0,0,0,0,0],"sum_hessian":[1.4199675E3,7.530876E2,6.668799E2,6.745189E2,7.856869E1,3.8675232E2,2.8012756E2,2.5789282E2,4.166261E2,7.689449E1,1.6741964E0,4.9583916E1,3.371684E2,2.5505534E2,2.5072233E1,1.16237915E2,1.4165489E2,5.248387E0,4.1137772E2,3.232138E1,4.4573112E1,3.3639886E0,4.621993E1,3.8774303E1,2.9839407E2,2.3925525E2,1.5800089E1,2.0938377E1,4.1338573E0],"tree_param":{"num_deleted":"0","num_feature":"48","num_nodes":"29","size_leaf_vector":"1"}},{"base_weights":[3.72377E-2,-2.7529998E-2,3.3982244E-1,-5.7764903E-2,4.310161E-1,-1.0284549E0,3.8325638E-1,-9.24987E-2,4.6362546E-1,6.514174E-1,-6.612262E-1,-7.238235E-2,4.294085E-2,4.073994E-1,-6.199748E-2,-9.492363E-3,4.406297E-3,4.436474E-3,4.976113E-2,3.6397897E-2,-5.431832E-2,-6.273654E-2,1.6686957E-2,-2.2508614E-3,2.4522206E-2],"categories":[],"categories_nodes":[],"categories_segments":[],"categories_sizes":[],"default_left":[0,0,0,0,0,0,0,0,0,0,0,0,0,0,0,0,0,0,0,0,0,0,0,0,0],"id":33,"left_children":[1,3,5,7,9,11,13,15,17,19,21,-1,-1,23,-1,-1,-1,-1,-1,-1,-1,-1,-1,-1,-1],"loss_changes":[2.8035337E1,1.6368656E1,1.5382835E1,2.0087162E1,1.8013659E1,7.5969477E0,1.0113438E1,1.8277613E1,1.3721669E1,8.941662E0,7.9537864E0,0E0,0E0,9.126873E0,0E0,0E0,0E0,0E0,0E0,0E0,0E0,0E0,0E0,0E0,0E0],"parents":[2147483647,0,0,1,1,2,2,3,3,4,4,5,5,6,6,7,7,8,8,9,9,10,10,13,13],"right_children":[2,4,6,8,10,12,14,16,18,20,22,-1,-1,24,-1,-1,-1,-1,-1,-1,-1,-1,-1,-1,-1],"split_conditions":[1E0,1.6435011E6,5.1E-2,3E0,8.9E1,7.2E1,9.62E1,1.486E1,6.38E1,9.515398E4,2.67E-1,-7.238235E-2,4.294085E-2,5.849161E4,-6.199748E-2,-9.492363E-3,4.406297E-3,4.436474E-3,4.976113E-2,3.6397897E-2,-5.431832E-2,-6.273654E-2,1.6686957E-2,-2.2508614E-3,2.4522206E-2],"split_indices":[6,20,7,13,16,19,16,18,19,10,14,0,0,4,0,0,0,0,0,0,0,0,0,0,0],"split_type":[0,0,0,0,0,0,0,0,0,0,0,0,0,0,0,0,0,0,0,0,0,0,0,0,0],"sum_hessian":[1.4290636E3,1.177855E3,2.5120862E2,1.1058154E3,7.203953E1,7.0311513E0,2.4417747E2,1.0375209E3,6.829459E1,6.0279457E1,1.1760072E1,5.943868E0,1.0872831E0,2.4133691E2,2.840549E0,6.741391E2,3.633817E2,4.0734493E1,2.7560099E1,5.8293045E1,1.9864116E0,7.20259E0,4.5574813E0,3.749997E1,2.0383694E2],"tree_param":{"num_deleted":"0","num_feature":"48","num_nodes":"25","size_leaf_vector":"1"}},{"base_weights":[4.1507836E-3,-5.4016892E-2,2.880602E-1,-1.0035732E0,-3.8868893E-2,3.65019E-1,-4.8032615E-1,-1.2914287E0,1.0731278E-1,-8.068953E-2,2.9056296E-1,5.426129E-1,4.6678632E-2,-1.103116E0,2.7631974E-1,-1.075841E-2,-7.396962E-2,-4.9060967E-2,4.430545E-2,-1.7064343E-3,-1.8389398E-2,-3.627888E-2,2.2290647E-2,3.9599206E-2,1.1872364E-2,7.2087212E-3,-7.390061E-2,4.142492E-2,-7.669708E-2,4.007035E-2,-6.356215E-2],"categories":[],"categories_nodes":[],"categories_segments":[],"categories_sizes":[],"default_left":[0,0,0,0,0,0,0,0,0,0,0,0,0,0,0,0,0,0,0,0,0,0,0,0,0,0,0,0,0,0,0],"id":34,"left_children":[1,3,5,7,9,11,13,15,17,19,21,23,25,27,29,-1,-1,-1,-1,-1,-1,-1,-1,-1,-1,-1,-1,-1,-1,-1,-1],"loss_changes":[2.3228132E1,1.6753166E1,1.4318417E1,5.9875717E0,1.5868972E1,1.2297356E1,1.0768701E1,2.6359348E0,4.8432584E0,1.3640547E1,2.0796638E1,1.0451973E1,1.1978384E1,1.1573689E1,9.815255E0,0E0,0E0,0E0,0E0,0E0,0E0,0E0,0E0,0E0,0E0,0E0,0E0,0E0,0E0,0E0,0E0],"parents":[2147483647,0,0,1,1,2,2,3,3,4,4,5,5,6,6,7,7,8,8,9,9,10,10,11,11,12,12,13,13,14,14],"right_children":[2,4,6,8,10,12,14,16,18,20,22,24,26,28,30,-1,-1,-1,-1,-1,-1,-1,-1,-1,-1,-1,-1,-1,-1,-1,-1],"split_conditions":[1E0,9.7E0,1E0,2E0,7.1962544E5,2.1580902E5,6.59E1,3.12E1,3.0469725E5,3.8034912E5,1.04E-1,9.89E0,3.132E1,1.12E1,7.5E0,-1.075841E-2,-7.396962E-2,-4.9060967E-2,4.430545E-2,-1.7064343E-3,-1.8389398E-2,-3.627888E-2,2.2290647E-2,3.9599206E-2,1.1872364E-2,7.2087212E-3,-7.390061E-2,4.142492E-2,-7.669708E-2,4.007035E-2,-6.356215E-2],"split_indices":[6,21,37,13,4,4,19,19,20,4,14,18,18,21,0,0,0,0,0,0,0,0,0,0,0,0,0,0,0,0,0],"split_type":[0,0,0,0,0,0,0,0,0,0,0,0,0,0,0,0,0,0,0,0,0,0,0,0,0,0,0,0,0,0,0],"sum_hessian":[1.4046002E3,1.1664304E3,2.3816982E2,1.7290958E1,1.1491394E3,2.169644E2,2.1205414E1,1.3603472E1,3.687486E0,1.0203618E3,1.2877759E2,1.3881729E2,7.814711E1,1.1380391E1,9.825022E0,2.3414285E0,1.1262043E1,1.4295166E0,2.2579694E0,8.789371E2,1.4142476E2,1.6580626E1,1.1219696E2,7.5514275E1,6.3303013E1,7.430138E1,3.8457336E0,1.90705E0,9.473342E0,7.6959414E0,2.1290803E0],"tree_param":{"num_deleted":"0","num_feature":"48","num_nodes":"31","size_leaf_vector":"1"}},{"base_weights":[1.7320937E-2,2.0023413E-1,-4.9017853E-1,3.6758417E-1,4.544949E-2,-3.000509E-1,-6.721963E-1,9.749048E-1,3.366939E-1,-4.59004E-2,4.608588E-1,-3.9695624E-1,8.4333503E-1,6.2077075E-1,-7.2692305E-1,6.290711E-2,2.0290922E-2,2.3919614E-2,1.0340895E-2,-4.9823443E-3,3.569821E-2,3.484998E-2,4.355529E-3,1.7789748E-2,-2.458378E-2,6.74339E-2,-4.6234407E-2,-4.7169205E-2,8.9548655E-2,-2.740213E-2,-4.952411E-2],"categories":[],"categories_nodes":[],"categories_segments":[],"categories_sizes":[],"default_left":[0,0,0,0,0,0,0,0,0,0,0,0,0,0,0,0,0,0,0,0,0,0,0,0,0,0,0,0,0,0,0],"id":35,"left_children":[1,3,5,7,9,11,13,15,17,19,21,23,25,27,29,-1,-1,-1,-1,-1,-1,-1,-1,-1,-1,-1,-1,-1,-1,-1,-1],"loss_changes":[1.333918E2,2.7342373E1,1.2973442E1,9.189995E0,2.0886353E1,2.1166733E1,1.4157265E1,3.3626347E0,8.814331E0,1.8515972E1,8.694996E0,1.2581448E1,1.4657712E1,1.7073885E1,8.240051E0,0E0,0E0,0E0,0E0,0E0,0E0,0E0,0E0,0E0,0E0,0E0,0E0,0E0,0E0,0E0,0E0],"parents":[2147483647,0,0,1,1,2,2,3,3,4,4,5,5,6,6,7,7,8,8,9,9,10,10,11,11,12,12,13,13,14,14],"right_children":[2,4,6,8,10,12,14,16,18,20,22,24,26,28,30,-1,-1,-1,-1,-1,-1,-1,-1,-1,-1,-1,-1,-1,-1,-1,-1],"split_conditions":[6.8E2,6.1E2,8.928559E4,4.76E2,1E0,3E0,-1.996E1,3.6E1,1.1299263E5,3E0,2E0,1.286E1,7.49E2,2.5494855E5,3.04E-1,6.290711E-2,2.0290922E-2,2.3919614E-2,1.0340895E-2,-4.9823443E-3,3.569821E-2,3.484998E-2,4.355529E-3,1.7789748E-2,-2.458378E-2,6.74339E-2,-4.6234407E-2,-4.7169205E-2,8.9548655E-2,-2.740213E-2,-4.952411E-2],"split_indices":[1,1,17,1,6,13,18,22,12,13,15,21,1,12,7,0,0,0,0,0,0,0,0,0,0,0,0,0,0,0,0],"split_type":[0,0,0,0,0,0,0,0,0,0,0,0,0,0,0,0,0,0,0,0,0,0,0,0,0,0,0,0,0,0,0],"sum_hessian":[1.4349154E3,1.0552039E3,3.797116E2,5.0636136E2,5.4884247E2,1.8701385E2,1.9269775E2,2.302939E1,4.8333197E2,4.506357E2,9.8206795E1,1.7300407E2,1.4009779E1,7.404992E0,1.8529276E2,1.4568006E1,8.461386E0,2.2986235E2,2.534696E2,4.2167853E2,2.8957165E1,5.9652435E1,3.8554356E1,1.9028105E1,1.5397597E2,1.1080028E1,2.9297516E0,3.25201E0,4.1529818E0,1.1221239E2,7.3080376E1],"tree_param":{"num_deleted":"0","num_feature":"48","num_nodes":"31","size_leaf_vector":"1"}},{"base_weights":[-1.4090847E-2,1.4609815E-1,-5.264445E-1,3.883473E-1,5.4420475E-3,-5.886855E-1,1.07970454E-1,-4.6802372E-1,4.152075E-1,-6.42232E-2,3.3548218E-1,-6.138668E-1,1.0407794E0,4.8004013E-1,-9.0083337E-1,3.2763176E-2,-5.402688E-2,1.7931167E-2,3.9879557E-2,-5.4272306E-3,2.6023164E-2,-2.6509648E-2,2.1546373E-2,-3.312973E-2,7.667837E-3,9.553148E-2,-3.748486E-2,-3.2492129E-3,6.600224E-2,3.7667383E-2,-6.226925E-2],"categories":[],"categories_nodes":[],"categories_segments":[],"categories_sizes":[],"default_left":[0,0,0,0,0,0,0,0,0,0,0,0,0,0,0,0,0,0,0,0,0,0,0,0,0,0,0,0,0,0,0],"id":36,"left_children":[1,3,5,7,9,11,13,15,17,19,21,23,25,27,29,-1,-1,-1,-1,-1,-1,-1,-1,-1,-1,-1,-1,-1,-1,-1,-1],"loss_changes":[1.14746185E2,3.629187E1,1.3212502E1,9.19421E0,1.5539009E1,1.3088058E1,1.1916445E1,9.218147E0,7.9336166E0,1.4519375E1,9.96079E0,1.1295219E1,9.201425E0,1.0617687E1,5.8349648E0,0E0,0E0,0E0,0E0,0E0,0E0,0E0,0E0,0E0,0E0,0E0,0E0,0E0,0E0,0E0,0E0],"parents":[2147483647,0,0,1,1,2,2,3,3,4,4,5,5,6,6,7,7,8,8,9,9,10,10,11,11,12,12,13,13,14,14],"right_children":[2,4,6,8,10,12,14,16,18,20,22,24,26,28,30,-1,-1,-1,-1,-1,-1,-1,-1,-1,-1,-1,-1,-1,-1,-1,-1],"split_conditions":[6.86E2,5.93E2,1E0,2.76389E3,1E0,2E0,2.3140153E5,1.68E-1,6.881918E5,1E0,9.9E-2,9.48E1,4.75E1,1.4480656E5,7.8E-2,3.2763176E-2,-5.402688E-2,1.7931167E-2,3.9879557E-2,-5.4272306E-3,2.6023164E-2,-2.6509648E-2,2.1546373E-2,-3.312973E-2,7.667837E-3,9.553148E-2,-3.748486E-2,-3.2492129E-3,6.600224E-2,3.7667383E-2,-6.226925E-2],"split_indices":[1,1,9,10,6,6,12,7,4,9,7,16,19,12,14,0,0,0,0,0,0,0,0,0,0,0,0,0,0,0,0],"split_type":[0,0,0,0,0,0,0,0,0,0,0,0,0,0,0,0,0,0,0,0,0,0,0,0,0,0,0,0,0,0,0],"sum_hessian":[1.3961547E3,1.0641573E3,3.3199734E2,3.9025986E2,6.738975E2,3.024015E2,2.9595852E1,1.1368825E1,3.7889102E2,5.571079E2,1.16789566E2,2.9841318E2,3.9883134E0,2.2004313E1,7.591539E0,3.9871006E0,7.381725E0,3.3173898E2,4.715205E1,5.1860974E2,3.8498196E1,1.1145601E1,1.0564397E2,2.8072046E2,1.7692707E1,2.6390853E0,1.3492281E0,1.3904941E1,8.099372E0,1.1041406E0,6.4873986E0],"tree_param":{"num_deleted":"0","num_feature":"48","num_nodes":"31","size_leaf_vector":"1"}},{"base_weights":[3.0083604E-2,1.9568492E-1,-4.5483077E-1,2.8881568E-1,-1.5020786E-2,-5.545858E-1,-3.8841397E-2,3.262633E-1,-1.1503244E-1,5.860517E-2,-6.858904E-1,1.1967666E0,-5.827574E-1,-2.8258228E-1,8.934632E-1,4.5786787E-2,1.5073448E-2,-4.214514E-2,1.1289596E-2,-2.4027745E-3,3.190435E-2,6.890442E-2,-4.3283604E-2,1.1089464E-1,-3.6038917E-2,-3.2118242E-2,1.573764E-3,-2.9082958E-2,3.778799E-2,-4.7748927E-2,6.369011E-2],"categories":[],"categories_nodes":[],"categories_segments":[],"categories_sizes":[],"default_left":[0,0,0,0,0,0,0,0,0,0,0,0,0,0,0,0,0,0,0,0,0,0,0,0,0,0,0,0,0,0,0],"id":37,"left_children":[1,3,5,7,9,11,13,15,17,19,21,23,25,27,29,-1,-1,-1,-1,-1,-1,-1,-1,-1,-1,-1,-1,-1,-1,-1,-1],"loss_changes":[1.1250571E2,2.0495647E1,1.4779488E1,1.0989914E1,1.5896805E1,1.4887772E1,1.6173765E1,9.414322E0,1.5619364E1,1.7967352E1,1.3002606E1,1.1155229E1,1.0408478E1,1.792393E1,1.1594139E1,0E0,0E0,0E0,0E0,0E0,0E0,0E0,0E0,0E0,0E0,0E0,0E0,0E0,0E0,0E0,0E0],"parents":[2147483647,0,0,1,1,2,2,3,3,4,4,5,5,6,6,7,7,8,8,9,9,10,10,11,11,12,12,13,13,14,14],"right_children":[2,4,6,8,10,12,14,16,18,20,22,24,26,28,30,-1,-1,-1,-1,-1,-1,-1,-1,-1,-1,-1,-1,-1,-1,-1,-1],"split_conditions":[6.8E2,6.38E2,1E0,5.16E-1,1E0,5.913972E4,1E0,4.76E2,1.569611E4,7.012817E4,4.20242E3,7.29E1,1E0,1E0,1.679E1,4.5786787E-2,1.5073448E-2,-4.214514E-2,1.1289596E-2,-2.4027745E-3,3.190435E-2,6.890442E-2,-4.3283604E-2,1.1089464E-1,-3.6038917E-2,-3.2118242E-2,1.573764E-3,-2.9082958E-2,3.778799E-2,-4.7748927E-2,6.369011E-2],"split_indices":[1,1,6,7,29,20,38,1,10,10,10,16,9,41,21,0,0,0,0,0,0,0,0,0,0,0,0,0,0,0,0],"split_type":[0,0,0,0,0,0,0,0,0,0,0,0,0,0,0,0,0,0,0,0,0,0,0,0,0,0,0,0,0,0,0],"sum_hessian":[1.3989161E3,1.0432396E3,3.5567648E2,7.232128E2,3.2002676E2,2.8661295E2,6.906353E1,6.62018E2,6.119483E1,2.892005E2,3.082626E1,3.880668E0,2.827323E2,5.5302258E1,1.3761274E1,2.5271374E1,6.3674664E2,1.9046234E1,4.2148598E1,2.4501889E2,4.418162E1,1.9358976E0,2.8890362E1,2.4300122E0,1.4506555E0,2.576802E2,2.5052073E1,4.3276897E1,1.202536E1,2.0905194E0,1.1670754E1],"tree_param":{"num_deleted":"0","num_feature":"48","num_nodes":"31","size_leaf_vector":"1"}},{"base_weights":[5.4909233E-2,2.0639022E-1,-3.919788E-1,3.3015063E-1,6.893393E-2,-5.2049065E-1,8.80585E-2,3.7166423E-1,-1.3708709E-1,5.03451E-1,4.1266717E-3,1.0211049E0,-5.475822E-1,2.3013778E-1,-5.676938E-2,-8.9894835E-4,2.194654E-2,-4.1750655E-2,2.2490444E-2,3.8122607E-3,5.2030828E-2,5.50705E-3,-1.3777909E-2,-3.721766E-2,9.714067E-2,-7.6341727E-3,-3.357519E-2,8.368028E-4,5.337308E-2],"categories":[],"categories_nodes":[],"categories_segments":[],"categories_sizes":[],"default_left":[0,0,0,0,0,0,0,0,0,0,0,0,0,0,0,0,0,0,0,0,0,0,0,0,0,0,0,0,0],"id":38,"left_children":[1,3,5,7,9,11,13,15,17,19,21,23,25,27,-1,-1,-1,-1,-1,-1,-1,-1,-1,-1,-1,-1,-1,-1,-1],"loss_changes":[9.528444E1,1.785624E1,2.2030724E1,1.0773079E1,1.4055451E1,1.2305748E1,1.3491814E1,1.3321091E1,1.9150843E1,1.4787174E1,1.29408455E1,9.918341E0,1.3455521E1,1.2316048E1,0E0,0E0,0E0,0E0,0E0,0E0,0E0,0E0,0E0,0E0,0E0,0E0,0E0,0E0,0E0],"parents":[2147483647,0,0,1,1,2,2,3,3,4,4,5,5,6,6,7,7,8,8,9,9,10,10,11,11,12,12,13,13],"right_children":[2,4,6,8,10,12,14,16,18,20,22,24,26,28,-1,-1,-1,-1,-1,-1,-1,-1,-1,-1,-1,-1,-1,-1,-1],"split_conditions":[6.8E2,6.16E2,1E0,5.09E-1,5E0,5.913972E4,2.7284722E5,1.13E-1,2.319767E4,1.368E1,7.5E0,5.1E1,1E1,1E0,-5.676938E-2,-8.9894835E-4,2.194654E-2,-4.1750655E-2,2.2490444E-2,3.8122607E-3,5.2030828E-2,5.50705E-3,-1.3777909E-2,-3.721766E-2,9.714067E-2,-7.6341727E-3,-3.357519E-2,8.368028E-4,5.337308E-2],"split_indices":[1,1,6,7,8,20,17,7,10,18,0,8,8,38,0,0,0,0,0,0,0,0,0,0,0,0,0,0,0],"split_type":[0,0,0,0,0,0,0,0,0,0,0,0,0,0,0,0,0,0,0,0,0,0,0,0,0,0,0,0,0],"sum_hessian":[1.4053593E3,1.0499854E3,3.5537384E2,5.517809E2,4.9820447E2,2.802604E2,7.511343E1,5.0694403E2,4.483689E1,6.3783436E1,4.3442102E2,4.206493E0,2.7605392E2,6.802549E1,7.0879335E0,7.474055E1,4.3220346E2,2.0288004E1,2.4548887E1,3.6164154E1,2.761928E1,3.1545447E2,1.1896658E2,1.5088439E0,2.697649E0,6.6469345E1,2.0958458E2,5.502238E1,1.3003107E1],"tree_param":{"num_deleted":"0","num_feature":"48","num_nodes":"29","size_leaf_vector":"1"}},{"base_weights":[-1.6079577E-2,-7.363222E-2,2.553592E-1,-1.0343333E-1,3.5363162E-1,-7.09204E-2,2.9456416E-1,-1.6587919E-1,1.3504085E-1,4.7963545E-1,-9.562528E-1,-9.891391E-1,3.3831665E-1,5.84876E-2,-9.128906E-3,-3.451507E-4,3.545032E-2,3.4683976E-2,-7.0139035E-3,-6.6169746E-2,2.6183153E-2,-7.0833705E-2,4.595974E-2,1.9951282E-2,-1.920372E-2],"categories":[],"categories_nodes":[],"categories_segments":[],"categories_sizes":[],"default_left":[0,0,0,0,0,0,0,0,0,0,0,0,0,0,0,0,0,0,0,0,0,0,0,0,0],"id":39,"left_children":[1,3,5,7,9,-1,11,13,15,17,19,21,23,-1,-1,-1,-1,-1,-1,-1,-1,-1,-1,-1,-1],"loss_changes":[2.1021292E1,1.4170197E1,1.5865508E1,1.5486038E1,1.2441276E1,0E0,1.3300465E1,1.8577633E1,1.7605644E1,8.973506E0,4.336047E0,7.7179875E0,9.976385E0,0E0,0E0,0E0,0E0,0E0,0E0,0E0,0E0,0E0,0E0,0E0,0E0],"parents":[2147483647,0,0,1,1,2,2,3,3,4,4,6,6,7,7,8,8,9,9,10,10,11,11,12,12],"right_children":[2,4,6,8,10,-1,12,14,16,18,20,22,24,-1,-1,-1,-1,-1,-1,-1,-1,-1,-1,-1,-1],"split_conditions":[1E0,1E0,2.49E1,2E0,1E0,-7.09204E-2,5.1E-2,5.913972E4,3.153097E5,1.7184161E5,1E0,9.472322E5,1E0,5.84876E-2,-9.128906E-3,-3.451507E-4,3.545032E-2,3.4683976E-2,-7.0139035E-3,-6.6169746E-2,2.6183153E-2,-7.0833705E-2,4.595974E-2,1.9951282E-2,-1.920372E-2],"split_indices":[6,9,19,13,35,0,7,20,12,17,29,20,26,0,0,0,0,0,0,0,0,0,0,0,0],"split_type":[0,0,0,0,0,0,0,0,0,0,0,0,0,0,0,0,0,0,0,0,0,0,0,0,0],"sum_hessian":[1.3434159E3,1.1090045E3,2.3441136E2,1.0374048E3,7.159976E1,4.559846E0,2.2985152E2,8.2236743E2,2.1503732E2,6.589486E1,5.704896E0,6.8636465E0,2.2298787E2,9.302166E0,8.130653E2,1.731938E2,4.1843517E1,4.889379E1,1.700107E1,4.6556673E0,1.0492287E0,5.8178735E0,1.0457733E0,2.061139E2,1.6873966E1],"tree_param":{"num_deleted":"0","num_feature":"48","num_nodes":"25","size_leaf_vector":"1"}},{"base_weights":[2.9483883E-2,1.4340208E-1,-4.839077E-1,2.987346E-1,2.546711E-2,-3.886791E-1,-1.080172E0,2.4528329E-1,6.838159E-1,-4.6090156E-2,3.2889798E-1,2.0631161E-1,-4.816961E-1,3.0724306E-2,-5.8199525E-2,-7.2823428E-3,1.4740949E-2,-2.6815562E-2,3.8509723E-2,2.6863732E-3,-2.2761507E-2,-9.761758E-3,2.5359182E-2,-1.476786E-2,9.249362E-2,1.3479567E-2,-2.8316041E-2],"categories":[],"categories_nodes":[],"categories_segments":[],"categories_sizes":[],"default_left":[0,0,0,0,0,0,0,0,0,0,0,0,0,0,0,0,0,0,0,0,0,0,0,0,0,0,0],"id":40,"left_children":[1,3,5,7,9,11,13,15,17,19,21,23,25,-1,-1,-1,-1,-1,-1,-1,-1,-1,-1,-1,-1,-1,-1],"loss_changes":[8.087787E1,2.0721607E1,1.3840424E1,9.882137E0,1.4004696E1,1.2171032E1,5.548153E0,8.375799E0,6.6262703E0,2.1352016E1,1.159955E1,2.5438185E1,1.216436E1,0E0,0E0,0E0,0E0,0E0,0E0,0E0,0E0,0E0,0E0,0E0,0E0,0E0,0E0],"parents":[2147483647,0,0,1,1,2,2,3,3,4,4,5,5,6,6,7,7,8,8,9,9,10,10,11,11,12,12],"right_children":[2,4,6,8,10,12,14,16,18,20,22,24,26,-1,-1,-1,-1,-1,-1,-1,-1,-1,-1,-1,-1,-1,-1],"split_conditions":[6.99E2,6.1E2,6.901839E4,7.0372644E5,1E0,1.355E1,8.72E0,1E0,3.559035E4,2.102E1,1.73E-1,1.28E1,1.8E1,3.0724306E-2,-5.8199525E-2,-7.2823428E-3,1.4740949E-2,-2.6815562E-2,3.8509723E-2,2.6863732E-3,-2.2761507E-2,-9.761758E-3,2.5359182E-2,-1.476786E-2,9.249362E-2,1.3479567E-2,-2.8316041E-2],"split_indices":[1,1,10,4,6,21,21,2,11,21,7,0,22,0,0,0,0,0,0,0,0,0,0,0,0,0,0],"split_type":[0,0,0,0,0,0,0,0,0,0,0,0,0,0,0,0,0,0,0,0,0,0,0,0,0,0,0],"sum_hessian":[1.3807041E3,1.1305608E3,2.5014328E2,4.872583E2,6.433025E2,2.171193E2,3.302399E1,4.2930542E2,5.795288E1,5.212303E2,1.22072205E2,2.9189342E1,1.8792995E2,1.258018E0,3.1765974E1,4.8062355E1,3.8124307E2,3.4871275E0,5.446575E1,4.1970404E2,1.0152625E2,3.0959831E1,9.111237E1,2.2991787E1,6.1975555E0,1.8804071E1,1.6912589E2],"tree_param":{"num_deleted":"0","num_feature":"48","num_nodes":"27","size_leaf_vector":"1"}},{"base_weights":[-1.0177644E-2,1.22201495E-1,-4.7334358E-1,-5.3257114E-1,1.4601219E-1,-5.260826E-1,2.806138E-1,-1.9893607E-1,-1.3973503E0,1.18875E-1,6.1223906E-1,-5.8712274E-1,9.920644E-2,1.3245151E0,-7.873615E-1,2.0768097E-2,-4.0064648E-2,1.2482114E-2,-8.414815E-2,3.2860662E-3,1.9047467E-2,4.3603107E-2,-1.5856897E-2,1.8826807E-2,-3.1996526E-2,-9.242792E-3,5.8709968E-2,9.500613E-2,-4.0594213E-2,-5.4912884E-2,5.641619E-2],"categories":[],"categories_nodes":[],"categories_segments":[],"categories_sizes":[],"default_left":[0,0,0,0,0,0,0,0,0,0,0,0,0,0,0,0,0,0,0,0,0,0,0,0,0,0,0,0,0,0,0],"id":41,"left_children":[1,3,5,7,9,11,13,15,17,19,21,23,25,27,29,-1,-1,-1,-1,-1,-1,-1,-1,-1,-1,-1,-1,-1,-1,-1,-1],"loss_changes":[8.473026E1,1.683458E1,1.2361687E1,1.066525E1,1.30585E1,1.1029083E1,2.4158352E1,1.0891724E1,5.309149E0,1.3654822E1,1.4003542E1,1.3574715E1,8.284594E0,1.4895042E1,7.7166963E0,0E0,0E0,0E0,0E0,0E0,0E0,0E0,0E0,0E0,0E0,0E0,0E0,0E0,0E0,0E0,0E0],"parents":[2147483647,0,0,1,1,2,2,3,3,4,4,5,5,6,6,7,7,8,8,9,9,10,10,11,11,12,12,13,13,14,14],"right_children":[2,4,6,8,10,12,14,16,18,20,22,24,26,28,30,-1,-1,-1,-1,-1,-1,-1,-1,-1,-1,-1,-1,-1,-1,-1,-1],"split_conditions":[6.86E2,2.128346E4,3E0,1.916E1,1E0,1E0,6.311664E4,5.66E1,1.8E1,1E0,2.087E1,1.951989E4,1E0,7.41E2,5E0,2.0768097E-2,-4.0064648E-2,1.2482114E-2,-8.414815E-2,3.2860662E-3,1.9047467E-2,4.3603107E-2,-1.5856897E-2,1.8826807E-2,-3.1996526E-2,-9.242792E-3,5.8709968E-2,9.500613E-2,-4.0594213E-2,-5.4912884E-2,5.641619E-2],"split_indices":[1,4,13,21,9,9,17,19,22,6,21,4,24,1,2,0,0,0,0,0,0,0,0,0,0,0,0,0,0,0,0],"split_type":[0,0,0,0,0,0,0,0,0,0,0,0,0,0,0,0,0,0,0,0,0,0,0,0,0,0,0,0,0,0,0],"sum_hessian":[1.3799751E3,1.0738036E3,3.0617154E2,3.692877E1,1.0368748E3,2.8643756E2,1.973396E1,2.7535507E1,9.393259E0,9.810281E2,5.584671E1,2.6101825E2,2.5419325E1,9.857982E0,9.8759775E0,1.3786324E1,1.3749184E1,1.4068077E0,7.9864516E0,8.166472E2,1.6438087E2,4.3693207E1,1.2153505E1,1.3242006E1,2.4777625E2,2.0761284E1,4.6580405E0,7.852805E0,2.0051765E0,8.864123E0,1.0118538E0],"tree_param":{"num_deleted":"0","num_feature":"48","num_nodes":"31","size_leaf_vector":"1"}},{"base_weights":[-8.02815E-3,2.949208E-1,-3.8109902E-2,-6.0941756E-1,4.534138E-1,-2.4230327E-1,3.192871E-2,1.9435327E-1,-6.9479585E-2,8.2581174E-1,2.6856128E-2,-3.5463014E-1,5.221404E-1,3.828898E-1,-2.5557477E-2,-3.749646E-2,4.0050346E-2,8.29068E-2,3.1163353E-2,-3.8928103E-2,2.052215E-2,-6.6244006E-3,-3.5158478E-2,-5.770005E-2,3.850616E-2,2.3259496E-2,-7.518016E-2,-9.431401E-3,4.642054E-3],"categories":[],"categories_nodes":[],"categories_segments":[],"categories_sizes":[],"default_left":[0,0,0,0,0,0,0,0,0,0,0,0,0,0,0,0,0,0,0,0,0,0,0,0,0,0,0,0,0],"id":42,"left_children":[1,3,5,7,9,11,13,15,-1,17,19,21,23,25,27,-1,-1,-1,-1,-1,-1,-1,-1,-1,-1,-1,-1,-1,-1],"loss_changes":[1.2339447E1,1.7806793E1,1.7619549E1,1.1974856E1,1.6600098E1,2.7201992E1,1.8527582E1,6.3699026E0,0E0,8.379204E0,1.5707572E1,2.11926E1,1.781149E1,2.0765423E1,1.5262516E1,0E0,0E0,0E0,0E0,0E0,0E0,0E0,0E0,0E0,0E0,0E0,0E0,0E0,0E0],"parents":[2147483647,0,0,1,1,2,2,3,3,4,4,5,5,6,6,7,7,9,9,10,10,11,11,12,12,13,13,14,14],"right_children":[2,4,6,8,10,12,14,16,-1,18,20,22,24,26,28,-1,-1,-1,-1,-1,-1,-1,-1,-1,-1,-1,-1,-1,-1],"split_conditions":[5.3E1,1.24E-1,1.71E-1,2.6E0,1.4990855E5,1E0,5E0,1E0,-6.9479585E-2,1.5777931E5,3.48E0,2.69E-1,7.314716E4,4.2272178E5,1E0,-3.749646E-2,4.0050346E-2,8.29068E-2,3.1163353E-2,-3.8928103E-2,2.052215E-2,-6.6244006E-3,-3.5158478E-2,-5.770005E-2,3.850616E-2,2.3259496E-2,-7.518016E-2,-9.431401E-3,4.642054E-3],"split_indices":[16,14,7,0,11,41,8,5,0,20,18,14,11,17,13,0,0,0,0,0,0,0,0,0,0,0,0,0,0],"split_type":[0,0,0,0,0,0,0,0,0,0,0,0,0,0,0,0,0,0,0,0,0,0,0,0,0,0,0,0,0],"sum_hessian":[1.3517805E3,1.21307396E2,1.2304731E3,1.76655E1,1.0364189E2,3.1363364E2,9.1683954E2,9.071015E0,8.594486E0,5.4834076E1,4.880782E1,2.7392007E2,3.9713554E1,1.2824226E2,7.885973E2,3.4557767E0,5.615238E0,9.325585E0,4.5508488E1,1.541378E1,3.339404E1,1.681375E2,1.0578258E2,4.6474457E0,3.506611E1,1.2360336E2,4.6389065E0,3.3146994E2,4.5712732E2],"tree_param":{"num_deleted":"0","num_feature":"48","num_nodes":"29","size_leaf_vector":"1"}},{"base_weights":[-6.734426E-3,1.644659E-1,-2.6000884E-1,3.2701063E-1,5.7983927E-2,-3.4213537E-1,7.516882E-2,1.24331765E-1,5.220961E-1,-2.6855456E-2,6.831864E-1,-4.0331897E-1,1.75479E-1,4.38634E-1,-3.6109987E-1,1.8127114E-2,-1.3397614E-2,9.084466E-3,3.6516875E-2,-8.2418285E-2,-1.8231891E-4,3.8169935E-2,-6.2307816E-2,-1.1820431E-2,-3.1355567E-2,3.694165E-2,-3.477982E-2,-2.5389468E-2,3.7146498E-2,1.4866007E-2,-3.2296445E-2],"categories":[],"categories_nodes":[],"categories_segments":[],"categories_sizes":[],"default_left":[0,0,0,0,0,0,0,0,0,0,0,0,0,0,0,0,0,0,0,0,0,0,0,0,0,0,0,0,0,0,0],"id":43,"left_children":[1,3,5,7,9,11,13,15,17,19,21,23,25,27,29,-1,-1,-1,-1,-1,-1,-1,-1,-1,-1,-1,-1,-1,-1,-1,-1],"loss_changes":[5.8667133E1,1.395438E1,1.5046825E1,1.2561283E1,2.5955837E1,1.3957035E1,1.7317472E1,1.4855034E1,1.1379337E1,1.6234268E1,9.999357E0,1.4510181E1,2.360105E1,1.750801E1,9.518108E0,0E0,0E0,0E0,0E0,0E0,0E0,0E0,0E0,0E0,0E0,0E0,0E0,0E0,0E0,0E0,0E0],"parents":[2147483647,0,0,1,1,2,2,3,3,4,4,5,5,6,6,7,7,8,8,9,9,10,10,11,11,12,12,13,13,14,14],"right_children":[2,4,6,8,10,12,14,16,18,20,22,24,26,28,30,-1,-1,-1,-1,-1,-1,-1,-1,-1,-1,-1,-1,-1,-1,-1,-1],"split_conditions":[6.52E2,9.765397E4,1E0,1.818E1,1E0,8.186976E5,2E0,2.0161728E5,2.24E-1,4E-2,4E0,4.9E0,7.91E1,1.300254E4,2.4E1,1.8127114E-2,-1.3397614E-2,9.084466E-3,3.6516875E-2,-8.2418285E-2,-1.8231891E-4,3.8169935E-2,-6.2307816E-2,-1.1820431E-2,-3.1355567E-2,3.694165E-2,-3.477982E-2,-2.5389468E-2,3.7146498E-2,1.4866007E-2,-3.2296445E-2],"split_indices":[1,12,6,21,41,4,15,4,7,7,3,0,16,10,22,0,0,0,0,0,0,0,0,0,0,0,0,0,0,0,0],"split_type":[0,0,0,0,0,0,0,0,0,0,0,0,0,0,0,0,0,0,0,0,0,0,0,0,0,0,0,0,0,0,0],"sum_hessian":[1.3510173E3,8.063305E2,5.446868E2,3.1832953E2,4.8800098E2,4.374744E2,1.0721243E2,1.569293E2,1.6140022E2,4.3053485E2,5.7466125E1,3.914273E2,4.6047073E1,5.8483284E1,4.8729153E1,9.768617E1,5.9243126E1,6.1970757E1,9.942946E1,5.087288E0,4.2544757E2,5.575254E1,1.7135875E0,2.253853E2,1.6604202E2,2.805486E1,1.7992214E1,1.4066091E1,4.441719E1,1.4701296E1,3.4027855E1],"tree_param":{"num_deleted":"0","num_feature":"48","num_nodes":"31","size_leaf_vector":"1"}},{"base_weights":[-7.922846E-3,6.849348E-2,-5.368349E-1,2.5245354E-1,-4.4711616E-2,1.9815105E-1,-6.9275767E-1,-4.0279724E-2,3.1186506E-1,-6.4029964E-3,-7.2911423E-1,-8.198525E-1,8.2608896E-1,-7.345104E-1,1.2052274E0,-9.625838E-2,4.6627615E-3,2.4906887E-2,9.915565E-3,-1.2534005E-2,3.9742673E-3,-4.5716606E-2,4.491405E-2,4.4819515E-2,-5.352646E-2,8.0541074E-2,-1.3183436E-2,-3.888218E-2,4.699328E-2,1.21370114E-1,-3.2853622E-2],"categories":[],"categories_nodes":[],"categories_segments":[],"categories_sizes":[],"default_left":[0,0,0,0,0,0,0,0,0,0,0,0,0,0,0,0,0,0,0,0,0,0,0,0,0,0,0,0,0,0,0],"id":44,"left_children":[1,3,5,7,9,11,13,15,17,19,21,23,25,27,29,-1,-1,-1,-1,-1,-1,-1,-1,-1,-1,-1,-1,-1,-1,-1,-1],"loss_changes":[5.4395622E1,2.4502499E1,1.9607601E1,7.8068676E0,1.9105347E1,2.018194E1,1.2010193E1,1.9433565E1,7.7838097E0,1.4522695E1,1.2464214E1,6.1835785E0,1.6989033E1,1.0696274E1,9.334566E0,0E0,0E0,0E0,0E0,0E0,0E0,0E0,0E0,0E0,0E0,0E0,0E0,0E0,0E0,0E0,0E0],"parents":[2147483647,0,0,1,1,2,2,3,3,4,4,5,5,6,6,7,7,8,8,9,9,10,10,11,11,12,12,13,13,14,14],"right_children":[2,4,6,8,10,12,14,16,18,20,22,24,26,28,30,-1,-1,-1,-1,-1,-1,-1,-1,-1,-1,-1,-1,-1,-1,-1,-1],"split_conditions":[7.2E2,6.06E2,1.378E1,1.432E1,8.32E1,1.218E1,2.97E1,7.6E-2,2.6E0,1.48E-1,6.451939E5,3.9E-2,8.597662E4,3E0,5.24E1,-9.625838E-2,4.6627615E-3,2.4906887E-2,9.915565E-3,-1.2534005E-2,3.9742673E-3,-4.5716606E-2,4.491405E-2,4.4819515E-2,-5.352646E-2,8.0541074E-2,-1.3183436E-2,-3.888218E-2,4.699328E-2,1.21370114E-1,-3.2853622E-2],"split_indices":[1,1,21,21,19,21,0,14,0,14,17,14,17,5,16,0,0,0,0,0,0,0,0,0,0,0,0,0,0,0,0],"split_type":[0,0,0,0,0,0,0,0,0,0,0,0,0,0,0,0,0,0,0,0,0,0,0,0,0,0,0,0,0,0,0],"sum_hessian":[1.343933E3,1.1750363E3,1.6889676E2,4.471616E2,7.278747E2,2.9512133E1,1.3938463E2,7.549644E1,3.7166513E2,6.902482E2,3.7626465E1,1.1142482E1,1.836965E1,1.3698419E2,2.4004374E0,4.1070585E0,7.138938E1,1.3947865E2,2.3218648E2,1.790602E2,5.1118805E2,3.417508E1,3.4513876E0,1.0917823E0,1.0050699E1,1.04014435E1,7.968207E0,1.340661E2,2.9180841E0,1.2660928E0,1.1343445E0],"tree_param":{"num_deleted":"0","num_feature":"48","num_nodes":"31","size_leaf_vector":"1"}},{"base_weights":[1.9540606E-2,1.5897132E-1,-3.6063987E-1,3.3720148E-1,7.656899E-2,-1.6309929E-1,-5.639471E-1,4.9270877E-1,1.1381529E-1,8.294402E-3,5.686818E-1,1.2216463E-1,-5.3609824E-1,9.39808E-1,-6.365276E-1,7.1685337E-3,3.243434E-2,3.592437E-2,-6.5244436E-3,-4.818991E-2,1.8508089E-3,-2.031873E-2,3.7911575E-2,-2.3729538E-3,7.356049E-2,-3.1474143E-2,5.4151546E-2,9.966968E-2,-1.2104009E-2,1.561527E-2,-3.5260856E-2],"categories":[],"categories_nodes":[],"categories_segments":[],"categories_sizes":[],"default_left":[0,0,0,0,0,0,0,0,0,0,0,0,0,0,0,0,0,0,0,0,0,0,0,0,0,0,0,0,0,0,0],"id":45,"left_children":[1,3,5,7,9,11,13,15,17,19,21,23,25,27,29,-1,-1,-1,-1,-1,-1,-1,-1,-1,-1,-1,-1,-1,-1,-1,-1],"loss_changes":[7.1806496E1,1.4528929E1,1.45070305E1,1.0818058E1,2.2808622E1,1.983261E1,2.0105656E1,9.946884E0,1.9264807E1,1.6711939E1,1.5594725E1,2.4344707E1,1.2882685E1,1.1232952E1,1.1371613E1,0E0,0E0,0E0,0E0,0E0,0E0,0E0,0E0,0E0,0E0,0E0,0E0,0E0,0E0,0E0,0E0],"parents":[2147483647,0,0,1,1,2,2,3,3,4,4,5,5,6,6,7,7,8,8,9,9,10,10,11,11,12,12,13,13,14,14],"right_children":[2,4,6,8,10,12,14,16,18,20,22,24,26,28,30,-1,-1,-1,-1,-1,-1,-1,-1,-1,-1,-1,-1,-1,-1,-1,-1],"split_conditions":[6.75E2,2.9087662E5,9.009965E4,2.67E-1,1E0,1.842E1,-1.996E1,6.860091E4,7.682283E4,3.05732E3,6.629379E4,1.792E1,3.951E1,1.7184161E5,3.66993E3,7.1685337E-3,3.243434E-2,3.592437E-2,-6.5244436E-3,-4.818991E-2,1.8508089E-3,-2.031873E-2,3.7911575E-2,-2.3729538E-3,7.356049E-2,-3.1474143E-2,5.4151546E-2,9.966968E-2,-1.2104009E-2,1.561527E-2,-3.5260856E-2],"split_indices":[1,20,17,14,41,21,18,17,11,10,11,21,18,17,10,0,0,0,0,0,0,0,0,0,0,0,0,0,0,0,0],"split_type":[0,0,0,0,0,0,0,0,0,0,0,0,0,0,0,0,0,0,0,0,0,0,0,0,0,0,0,0,0,0,0],"sum_hessian":[1.352532E3,9.9002386E2,3.6250818E2,3.1203125E2,6.779926E2,1.847757E2,1.7773247E2,1.8325505E2,1.287762E2,5.962826E2,8.1710014E1,1.050826E2,7.969309E1,7.6333265E0,1.7009915E2,5.715849E1,1.2609656E2,3.6498516E1,9.227768E1,1.6178043E1,5.8010455E2,1.3112831E1,6.859718E1,9.4202736E1,1.0879867E1,7.592526E1,3.767831E0,3.672704E0,3.9606225E0,1.1243403E1,1.5885574E2],"tree_param":{"num_deleted":"0","num_feature":"48","num_nodes":"31","size_leaf_vector":"1"}},{"base_weights":[-1.0880276E-2,-3.625245E-2,3.7164062E-1,1.6856256E-4,-3.6606064E-1,-9.313739E-1,4.6346614E-1,4.2161252E-2,-3.1212944E-1,1.7572218E-1,-6.209837E-1,-7.3691785E-2,3.3818826E-2,2.898264E-1,9.7478753E-1,4.7103714E-2,1.4854121E-3,-2.1188043E-2,4.744491E-2,-2.2556106E-2,3.397464E-2,1.1704552E-2,-4.3367926E-2,3.4279343E-2,-1.1090003E-2,5.774052E-2,-4.702779E-2],"categories":[],"categories_nodes":[],"categories_segments":[],"categories_sizes":[],"default_left":[0,0,0,0,0,0,0,0,0,0,0,0,0,0,0,0,0,0,0,0,0,0,0,0,0,0,0],"id":46,"left_children":[1,3,5,7,9,11,13,15,17,19,21,-1,-1,23,25,-1,-1,-1,-1,-1,-1,-1,-1,-1,-1,-1,-1],"loss_changes":[1.3044884E1,1.5136196E1,1.043545E1,1.490798E1,1.741671E1,6.0870705E0,6.711338E0,1.12014675E1,1.936921E1,1.3214772E1,1.8202206E1,0E0,0E0,1.2346804E1,7.825699E0,0E0,0E0,0E0,0E0,0E0,0E0,0E0,0E0,0E0,0E0,0E0,0E0],"parents":[2147483647,0,0,1,1,2,2,3,3,4,4,5,5,6,6,7,7,8,8,9,9,10,10,13,13,14,14],"right_children":[2,4,6,8,10,12,14,16,18,20,22,-1,-1,24,26,-1,-1,-1,-1,-1,-1,-1,-1,-1,-1,-1,-1],"split_conditions":[3E0,1E0,9.1E-2,1E0,5.183993E4,8.65E1,5.6052244E5,5.913972E4,1.4145005E5,4.9E0,5.900169E4,-7.3691785E-2,3.3818826E-2,1.0377246E5,1.41E1,4.7103714E-2,1.4854121E-3,-2.1188043E-2,4.744491E-2,-2.2556106E-2,3.397464E-2,1.1704552E-2,-4.3367926E-2,3.4279343E-2,-1.1090003E-2,5.774052E-2,-4.702779E-2],"split_indices":[13,29,14,34,17,16,4,20,10,0,12,0,0,4,0,0,0,0,0,0,0,0,0,0,0,0,0],"split_type":[0,0,0,0,0,0,0,0,0,0,0,0,0,0,0,0,0,0,0,0,0,0,0,0,0,0,0],"sum_hessian":[1.3416986E3,1.2590898E3,8.260877E1,1.1347751E3,1.2431475E2,4.836429E0,7.777234E1,1.0010372E3,1.3373798E2,3.987657E1,8.443818E1,3.6785603E0,1.1578687E0,5.922644E1,1.85459E1,1.26443815E1,9.8839276E2,1.2347171E2,1.0266273E1,1.7814459E1,2.2062113E1,1.889848E1,6.5539696E1,3.3202877E1,2.6023565E1,1.7315495E1,1.2304072E0],"tree_param":{"num_deleted":"0","num_feature":"48","num_nodes":"27","size_leaf_vector":"1"}},{"base_weights":[4.9975323E-3,-1.7892439E-2,3.8098332E-1,8.625581E-1,-2.9236726E-2,6.80839E-1,-2.3519326E-4,-4.413637E-2,1.0994147E0,-7.43473E-2,1.8772337E-1,1.0407E0,1.5567265E-1,9.053544E-1,-4.7426534E-1,9.142547E-2,1.2119502E-2,-5.000567E-3,1.760725E-2,1.8601108E-2,-1.7166868E-3,-1.44746E-2,6.446273E-2,2.6838725E-2,-7.312249E-2,-2.6556063E-2,6.300597E-2,-2.6996757E-3,-7.969426E-2],"categories":[],"categories_nodes":[],"categories_segments":[],"categories_sizes":[],"default_left":[0,0,0,0,0,0,0,0,0,0,0,0,0,0,0,0,0,0,0,0,0,0,0,0,0,0,0,0,0],"id":47,"left_children":[1,3,5,7,9,11,13,-1,15,17,19,21,23,25,27,-1,-1,-1,-1,-1,-1,-1,-1,-1,-1,-1,-1,-1,-1],"loss_changes":[1.1753146E1,1.2884708E1,8.958509E0,7.754302E0,1.2463981E1,8.128027E0,1.5669937E1,0E0,8.863886E0,1.156988E1,8.9854355E0,8.921066E0,1.2509194E1,